
\data\
ngram 1=4127
ngram 2=11606
ngram 3=1004

\1-grams:
-3.895699	!	-0.0985214
-4.196729	!!	-0.1035055
-4.196729	!!!	-0.09857741
-4.196729	"Catherine	-0.1046667
-4.196729	"I'll	-0.1043629
-4.196729	"It	-0.1046391
-4.196729	"Restaurant'	-0.1045287
-4.196729	"So	-0.102896
-4.196729	"Well,	-0.104501
-4.196729	"You	-0.1046115
-4.196729	"beautiful	-0.1046391
-4.196729	"it	-0.1045287
-4.196729	"lovely	-0.08665485
-4.196729	"new	-0.1046667
-4.196729	"own	-0.1046667
-4.196729	"special	-0.1046667
-4.196729	"tomato	-0.08665485
-4.196729	"unusually	-0.1046667
-4.196729	"vomit	-0.1046667
-2.917975	&	-0.1378847
-4.196729	'30	-0.1035055
-4.196729	'Strega'.	-0.10428
-3.895699	'bog	-0.2209155
-3.895699	(	-0.09975186
-4.196729	("My	-0.104501
-4.196729	($10)	-0.09700652
-4.196729	($12),	-0.1037269
-4.196729	($16/$8	-0.104501
-4.196729	($19)	-0.1046667
-4.196729	($20)	-0.09966808
-4.196729	(0)	-0.09857741
-4.196729	(160	-0.1046667
-4.196729	(2nd	-0.1046667
-4.196729	(As	-0.1040312
-4.196729	(I	-0.1045839
-4.196729	(L’Incontro),	-0.1046391
-4.196729	(also	-0.1011459
-3.895699	(and	-0.10428
-4.196729	(bruschetta	-0.08665485
-4.196729	(cant	-0.1046115
-4.196729	(cured	-0.1043353
-4.196729	(even	-0.1046115
-4.196729	(following	-0.10428
-4.196729	(fondue)	-0.08665485
-4.196729	(garlic,	-0.1046115
-4.196729	(have	-0.102896
-3.895699	(home	-0.2209155
-4.196729	(just	-0.1043629
-4.196729	(low	-0.09944458
-4.196729	(no	-0.1046667
-4.196729	(olives,	-0.1046667
-4.196729	(on	-0.1046391
-4.196729	(owner	-0.09790487
-4.196729	(pale	-0.1045563
-4.196729	(pasta	-0.09919299
-4.196729	(penis	-0.1046667
-4.196729	(pioneered	-0.1032009
-4.196729	(pizza	-0.08665485
-4.196729	(remember	-0.09633154
-4.196729	(reputedly	-0.08506905
-4.196729	(spicy,	-0.1046667
-4.196729	(steak	-0.1035332
-4.196729	(that	-0.1046667
-4.196729	(thirty	-0.1046667
-4.196729	(twice	-0.1043629
-4.196729	(unfortunately).	-0.09857741
-3.895699	(was	-0.2174223
-4.196729	(watch	-0.1046667
-3.895699	(we	-0.2181732
-4.196729	(well,	-0.1046667
-4.196729	(who	-0.1005052
-4.196729	(with	-0.08506905
-4.196729	(£16.95).	-0.100031
-4.196729	(£17.45),	-0.1037269
-4.196729	(£7.45)	-0.1027019
-4.196729	(£8.25).	-0.09857741
-4.196729	).....what	-0.09228788
-3.242486	+39	-0.9997514
-3.895699	,	-0.08662607
-2.56326	-	-0.1176443
-3.719607	.	-0.09554272
-4.196729	...	-0.09857741
-4.196729	....	-0.1043629
-4.196729	......Because	-0.08506905
-4.196729	.Most	-0.1046667
-4.196729	.Very	-0.1046391
-4.196729	01482	-0.1046667
-4.196729	01746	-0.1046667
-4.196729	01943	-0.1046667
-4.196729	02,	-0.1046667
-4.196729	020	-0.1046667
-3.242486	06	-0.1277281
-4.196729	1	-0.09966808
-4.196729	1,500-word	-0.1046667
-3.719607	10	-0.09678163
-4.196729	10.00	-0.1046667
-4.196729	10.03.2013	-0.08665485
-3.895699	100%	-0.1028128
-4.196729	11,	-0.1043353
-4.196729	110%	-0.1041694
-3.895699	12	-0.09610631
-4.196729	12-4pm.	-0.1046667
-4.196729	125-127,	-0.1044458
-4.196729	12pm	-0.1045563
-3.895699	13	-0.1045839
-4.196729	15	-0.1046391
-4.196729	16	-0.1044734
-4.196729	1626,	-0.1046667
-4.196729	18	-0.1045563
-3.895699	1981	-0.1046115
-4.196729	1990.	-0.1046667
-4.196729	1st	-0.1046115
-3.418577	2	-0.1018968
-4.196729	2,	-0.1028683
-3.895699	20	-0.1045563
-4.196729	2011	-0.1046667
-4.196729	2012	-0.09857741
-4.196729	22-25	-0.1046391
-4.196729	22nd	-0.1046667
-4.196729	25	-0.1046391
-4.196729	25717,	-0.1046667
-4.196729	27	-0.1044734
-3.895699	2788,	-0.2209155
-4.196729	2792,	-0.1046667
-3.418577	3	-0.131149
-4.196729	301	-0.09857741
-4.196729	30years	-0.08665485
-4.196729	31,	-0.1044458
-4.196729	3663.	-0.1046667
-4.196729	37	-0.1046115
-4.196729	397	-0.1046667
-4.196729	3rd	-0.1041142
-3.497759	4	-0.2356103
-4.196729	4.	-0.1030069
-3.719607	40	-0.1785746
-4.196729	470088.	-0.09857741
-4.196729	4741.	-0.1044458
-4.196729	4th	-0.1018968
-3.497759	5	-0.1396606
-4.196729	513	-0.1046667
-4.196729	55	-0.1046667
-3.895699	55,	-0.2207222
-4.196729	58/60,	-0.1044458
-4.196729	580	-0.1046667
-4.196729	581	-0.1046667
-3.895699	6.00.	-0.2175893
-4.196729	609312,	-0.1046667
-4.196729	63,	-0.1044458
-4.196729	6517.	-0.1044458
-4.196729	6743,	-0.1046667
-3.895699	679	-0.2209155
-4.196729	686	-0.1046667
-4.196729	687	-0.1046667
-3.895699	7	-0.1032009
-4.196729	700	-0.1046667
-4.196729	74,	-0.1044458
-4.196729	766220	-0.09857741
-4.196729	7730	-0.1046667
-4.196729	7pm	-0.08665485
-3.895699	8	-0.1031455
-4.196729	8,	-0.1043353
-4.196729	8.30pm	-0.1027019
-4.196729	84	-0.1045839
-4.196729	87	-0.1046667
-4.196729	8AF.	-0.1046667
-4.196729	8am	-0.1046391
-3.895699	8am,	-0.1027019
-3.895699	8pm	-0.1010902
-4.196729	9.30	-0.1046391
-4.196729	90	-0.1045839
-4.196729	9432,	-0.1046667
-3.895699	9am	-0.1011181
-4.196729	9am.	-0.1043629
-4.196729	9th	-0.09966808
-4.196729	:	-0.1044182
-3.895699	:)	-0.1043905
-3.895699	:0	-0.1045839
-1.854306	</s>
-99	<s>	-0.3200409
-4.196855	<unk>
-4.196729	@thisishull	-0.1011459
-2.96628	A	-0.1351246
-3.895699	About	-0.08504016
-4.196729	Abruzzo,	-0.1046115
-4.196729	Absolutely	-0.1046667
-3.594669	Advisor	-0.1439532
-4.196729	Advisor.	-0.09857741
-4.196729	Affogato	-0.1046115
-3.497759	After	-0.07142516
-4.196729	Aglio	-0.1027019
-4.196729	Albariño.	-0.09857741
-4.196729	Alcestis	-0.1018968
-4.196729	Alcestis.	-0.1046667
-4.196729	Alcestis?	-0.1043629
-3.020638	All	-0.3725826
-4.196729	Also	-0.1035332
-3.418577	Although	-0.08260681
-3.895699	Always	-0.10428
-4.196729	Am	-0.1043905
-4.196729	Amazing	-0.1035332
-4.196729	Amazing.	-0.1046667
-4.196729	America	-0.1046667
-4.196729	American	-0.1046391
-3.895699	Amo	-0.09784878
-3.117548	And	-0.1108741
-3.719607	Angelo	-0.1037823
-4.196729	Angelo's	-0.1046667
-4.196729	Another	-0.1046391
-4.196729	Antica	-0.1046667
-3.895699	Antipasto	-0.1045563
-4.196729	Antonia	-0.1045287
-4.196729	Anyway	-0.1011459
-4.196729	Appia	-0.1046667
-4.196729	Appian	-0.1046667
-4.196729	Argentinos	-0.1046667
-4.196729	Arriving	-0.102896
-3.242486	As	-0.09548179
-4.196729	Asparagus	-0.1046667
-3.351631	Asti	-0.115932
-3.895699	At	-0.1046391
-4.196729	Authentic	-0.1029792
-4.196729	Avenue	-0.09790487
-3.895699	Avenue,	-0.08504016
-3.242486	Average	-0.1725339
-3.594669	B	-0.2203905
-4.196729	BE	-0.1046667
-4.196729	BST	-0.09857741
-3.196729	Bar	-1.086338
-4.196729	Barca	-0.1042247
-4.196729	Bardolino	-0.1046391
-4.196729	Bath	-0.08665485
-3.895699	Beats	-0.2208603
-3.895699	Because	-0.2132829
-4.196729	Beef	-0.1045287
-4.196729	Been	-0.1046667
-4.196729	Before	-0.1045287
-4.196729	Between	-0.1046667
-4.196729	Bf	-0.1018968
-4.196729	Bianche	-0.1045839
-4.196729	Bill	-0.09790487
-4.196729	Bocca	-0.1045563
-3.418577	Bolognese	-0.1284632
-4.196729	Both	-0.1041971
-4.196729	Bravo	-0.1046667
-3.719607	Bridgnorth	-0.1045563
-4.196729	Bridgnorth:	-0.1046667
-3.895699	Broughton	-0.2208879
-3.497759	But	-0.08743122
-3.594669	By	-0.1390962
-4.196729	Cadillac	-0.1044182
-4.196729	Caesar	-0.1044182
-4.196729	Cafe	-0.1046667
-4.196729	Cafe,	-0.1022857
-4.196729	Café	-0.1044182
-4.196729	Calabrian	-0.1046667
-4.196729	Calamari	-0.1046667
-4.196729	Call	-0.1018134
-4.196729	Call:	-0.1046667
-4.196729	Cambridge.	-0.1046667
-4.196729	Campari	-0.1039206
-4.196729	Campo	-0.1046115
-4.196729	Can't	-0.1045563
-4.196729	Cancelleria	-0.1046667
-4.196729	Candles	-0.1011459
-4.196729	Cannot	-0.1046667
-4.196729	Carluccio	-0.1046115
-4.196729	Carmela	-0.1037269
-4.196729	Carmela.	-0.09857741
-3.895699	Carol	-0.09711891
-4.196729	Casa	-0.1046667
-4.196729	Castel	-0.1045287
-3.895699	Celia	-0.09787682
-3.895699	Celia’s	-0.1046391
-4.196729	Character	-0.1005052
-4.196729	Chianti	-0.1027019
-4.196729	Chilli	-0.1046667
-4.196729	Chips,	-0.1011459
-4.196729	Chocolate	-0.1046391
-4.196729	Classic.	-0.1046667
-3.242486	Closed	-0.2240674
-4.196729	Coats	-0.1045287
-4.196729	Coda	-0.1045563
-4.196729	Competition	-0.1034778
-4.196729	Confused.	-0.1046391
-4.196729	Contaldo,	-0.1045839
-4.196729	Convivio	-0.102896
-4.196729	Cooking	-0.08506905
-4.196729	Crab	-0.1027019
-4.196729	Crassus	-0.1046667
-4.196729	Cristina	-0.1022857
-4.196729	Customers	-0.1038376
-4.196729	D'Avolo!	-0.1043629
-4.196729	DISAPPOINTED.	-0.100031
-4.196729	DO	-0.1046667
-4.196729	Dad	-0.09966808
-4.196729	Daniele	-0.1046391
-4.196729	Danny	-0.08665485
-4.196729	Dean	-0.1046667
-4.196729	Decisions,	-0.1046391
-4.196729	Deli,	-0.08506905
-4.196729	Delightful	-0.08665485
-3.895699	Despite	-0.2013454
-3.895699	Diane	-0.2209155
-3.895699	Digital	-0.2209155
-4.196729	Dinner	-0.1038099
-4.196729	Disease,	-0.1040312
-4.196729	Dishes	-0.1046391
-3.895699	Ditirambo	-0.2148538
-4.196729	Domenico	-0.08665485
-4.196729	Domenico's	-0.1037546
-4.196729	Domenico's.	-0.09857741
-4.196729	Don't	-0.102896
-4.196729	Dont	-0.102896
-4.196729	Dorina,	-0.1045839
-4.196729	Drove	-0.1046115
-2.96628	Edinburgh	-0.1602817
-4.196729	Edinburgh!	-0.100031
-4.196729	Edinburgh,	-0.1025355
-4.196729	Edinburgh,but	-0.1028683
-3.117548	Edinburgh.	-0.1430086
-4.196729	Edinburgh.I	-0.1045839
-4.196729	Edinburgh.Popped	-0.09944458
-3.497759	Elena	-0.583307
-4.196729	Elena’s	-0.1046667
-4.196729	Ellis	-0.1046667
-4.196729	Email	-0.09857741
-4.196729	Ended	-0.1038929
-4.196729	Enjoy!	-0.100031
-4.196729	Enter	-0.08506905
-4.196729	Ernest	-0.1041694
-4.196729	Euripides'	-0.1046667
-3.719607	Even	-0.1589744
-3.895699	Every	-0.1040312
-3.895699	Everybody	-0.1046115
-4.196729	Everyone	-0.1045563
-4.196729	Everything	-0.1005052
-3.594669	Excellent	-0.1018412
-4.196729	Express	-0.1037269
-4.196729	Extremely	-0.1036439
-4.196729	Facebook	-0.09857741
-3.895699	Fantastic	-0.1022579
-4.196729	Fantastic,	-0.1046391
-4.196729	Feb	-0.08665485
-4.196729	February,	-0.1035332
-4.196729	February.	-0.1046667
-3.895699	Federico	-0.09787682
-4.196729	Federico’s	-0.09944458
-4.196729	Finish	-0.09919299
-4.196729	Fiona	-0.08665485
-4.196729	Fiori	-0.1005052
-4.196729	Firstly	-0.1041694
-3.895699	Follow	-0.09854941
-4.196729	Followed	-0.1032009
-3.351631	Food	-0.2942823
-3.242486	For	-0.1515076
-3.497759	Forget	-0.5817211
-3.895699	Fortunato	-0.2207498
-4.196729	Found	-0.1025355
-4.196729	Francesco	-0.08665485
-4.196729	Franconi	-0.1046667
-4.196729	French	-0.1046667
-4.196729	Frequented	-0.1032009
-3.594669	Friday	-0.09913706
-4.196729	Friendliness	-0.08665485
-4.196729	Friendly	-0.1046115
-3.155336	Frizzante	-0.1277556
-3.719607	From	-0.3332668
-3.895699	Funghi	-0.1046391
-4.196729	G	-0.1046667
-4.196729	GP	-0.1041142
-4.196729	Gary	-0.1046667
-4.196729	Gennaro	-0.1046667
-4.196729	Germanico	-0.1046667
-4.196729	Giganti,	-0.1046667
-4.196729	Giorgio	-0.1046667
-4.196729	Giorgio?	-0.1046391
-4.196729	Giovanni	-0.1045563
-4.196729	Girlfriend	-0.1018968
-4.196729	Giuseppe	-0.08665485
-3.895699	Give	-0.2180898
-3.895699	Glad	-0.2126079
-3.895699	Go	-0.09964015
-3.594669	Good	-0.1041971
-4.196729	Good,	-0.1046667
-4.196729	Goose	-0.09919299
-4.196729	Gouda	-0.08665485
-4.196729	Grand	-0.1046667
-4.196729	Grandma	-0.1046391
-4.196729	Grandpa	-0.1046391
-3.594669	Great	-0.09551453
-4.196729	Grey	-0.1046667
-4.196729	Grove	-0.1046667
-4.196729	Gypsy	-0.1046667
-4.196729	HOLLAND,	-0.1046667
-3.594669	Had	-0.1260708
-4.196729	Hades	-0.09633154
-4.196729	Hall.	-0.09857741
-3.895699	Hanover	-0.1045563
-3.895699	Have	-0.08940901
-3.895699	Having	-0.104501
-3.895699	He	-0.1043076
-4.196729	Hear	-0.1018134
-4.196729	Hen	-0.1045839
-3.895699	Her	-0.1042247
-4.196729	Hercules	-0.1046667
-3.497759	Highly	-0.1038653
-4.196729	His	-0.1045287
-4.196729	Holland	-0.09633154
-4.196729	Holland.	-0.1046115
-4.196729	Honey	-0.1046667
-4.196729	House	-0.1038376
-4.196729	Hull	-0.1046391
-4.196729	Hull.	-0.1046667
-4.196729	Hut	-0.104501
-1.971419	I	-0.3462667
-3.418577	I'd	-0.1756654
-3.117548	I'm	-0.1346299
-3.594669	I've	-0.15757
-4.196729	I.	-0.09857741
-4.196729	IT	-0.1005052
-4.196729	IT'S	-0.1042247
-3.196729	If	-0.2449011
-3.895699	Il	-0.2206669
-4.196729	Ilkley	-0.1044734
-4.196729	Ilkley,	-0.1046667
-4.196729	Imagine	-0.1030346
-3.242486	In	-0.1319407
-4.196729	Index	-0.09857741
-4.196729	India,	-0.1045287
-4.196729	Indian	-0.1044734
-4.196729	Island,	-0.1037546
-2.816518	It	-0.4554451
-3.719607	It's	-0.1042523
-2.404337	Italian	-0.2294625
-3.719607	Italian,	-0.08257774
-3.497759	Italian.	-0.19476
-4.196729	Italian?	-0.1046667
-4.196729	Italianate	-0.1046667
-3.895699	Italy	-0.1038099
-4.196729	Italy).	-0.1013129
-4.196729	Italy,	-0.1022857
-3.719607	Italy.	-0.1011737
-3.895699	Its	-0.09214581
-4.196729	I’ll	-0.1043353
-3.719607	I’ve	-0.1040035
-3.594669	Jamie	-0.1038099
-3.594669	Jamie's	-0.1575977
-4.196729	January	-0.1043629
-4.196729	Johnny	-0.09790487
-4.196729	Jonny	-0.1041694
-3.719607	Jordan	-0.10428
-4.196729	Jordan,	-0.08506905
-4.196729	Julio	-0.1046667
-3.895699	July	-0.1046391
-4.196729	Jump	-0.09633154
-3.594669	Just	-0.1005609
-4.196729	Ketel	-0.1045563
-4.196729	Kings	-0.1046667
-4.196729	Kitchen,	-0.1046667
-4.196729	L'amore,	-0.1032286
-4.196729	LS29	-0.1046667
-3.418577	La	-0.2111332
-4.196729	Labicana,	-0.1044458
-3.719607	Lanterna	-0.1776901
-4.196729	Lasagne	-0.1044182
-4.196729	Last	-0.1041142
-4.196729	Laterna	-0.09944458
-3.719607	Leith	-0.08659727
-4.196729	Liguria.	-0.09857741
-3.895699	Like	-0.0845488
-3.895699	Limited	-0.2148538
-4.196729	Limoncello	-0.1011459
-4.196729	Little	-0.1045563
-3.895699	Livia,	-0.09787682
-4.196729	Lla	-0.1046667
-4.196729	Locally	-0.1046667
-4.196729	Locanda	-0.1046667
-4.196729	Locatelli	-0.1046391
-4.196729	Locatelli,	-0.08665485
-3.719607	London	-0.09983561
-4.196729	London,	-0.1045287
-4.196729	Looking	-0.1045563
-4.196729	Looks	-0.1042247
-4.196729	Lorraine	-0.08665485
-4.196729	Los	-0.1046667
-3.719607	Lothian	-0.1045563
-3.895699	Lou	-0.08662607
-4.196729	Love	-0.1025355
-4.196729	Loved	-0.08506905
-3.895699	Lovely	-0.2203629
-4.196729	Lovely,	-0.1042247
-4.196729	Lucca	-0.1044182
-4.196729	Lucca,	-0.08506905
-4.196729	Lucca:	-0.1013129
-3.895699	LucyLyon	-0.2148538
-4.196729	Ludlow….However,	-0.09944458
-3.895699	Luigi	-0.1028406
-4.196729	Luigi.	-0.09857741
-4.196729	Luigi’s	-0.1046667
-4.196729	Lupo	-0.1046667
-4.196729	MI	-0.1046391
-4.196729	Madeira	-0.1044458
-3.895699	Main	-0.1044458
-4.196729	Mama,	-0.1041142
-4.196729	Many	-0.09700652
-4.196729	March	-0.1046667
-4.196729	March).	-0.1030069
-4.196729	Martin	-0.1046667
-4.196729	Massari	-0.1046667
-4.196729	Massimo	-0.1005052
-4.196729	Massimo,	-0.1046667
-3.719607	Max	-0.08138498
-4.196729	Max,	-0.1046667
-4.196729	Me	-0.08665485
-4.196729	Meat’	-0.1046667
-3.895699	Mediterranean	-0.1037823
-3.895699	Menu	-0.1002542
-4.196729	Metella,	-0.1046667
-4.196729	Mexican,	-0.09228788
-3.895699	Minestrone	-0.2029313
-3.719607	Mon.	-0.3526435
-3.594669	Monday	-0.07690482
-4.196729	Monday,	-0.1046391
-4.196729	Monster's	-0.1046667
-4.196729	Monteverde	-0.104501
-4.196729	Morreti	-0.1046667
-3.719607	Most	-0.09650037
-4.196729	Much	-0.1043629
-4.196729	Murmuring	-0.1046667
-4.196729	Music	-0.1045839
-2.874509	My	-0.3554661
-4.196729	Myself	-0.08665485
-4.196729	Natasha	-0.1044734
-4.196729	Neither	-0.1046667
-4.196729	Nemi.	-0.1044458
-4.196729	Nero	-0.1046667
-4.196729	Nerone.	-0.1046667
-4.196729	Next	-0.1046115
-4.196729	Nice	-0.1046391
-4.196729	Nonna	-0.1046667
-3.719607	Not	-0.09038025
-4.196729	Noticed	-0.1022024
-4.196729	November,	-0.1022857
-4.196729	Now	-0.1035886
-4.196729	Now,	-0.1043629
-4.196729	OMG!	-0.1013129
-3.895699	Of	-0.0831584
-4.196729	Oliver	-0.1041142
-4.196729	Oliver's	-0.1046667
-4.196729	Olivia,	-0.1040036
-3.594669	On	-0.08350641
-4.196729	Once	-0.1046115
-3.497759	One	-0.09103606
-4.196729	Only	-0.1036993
-4.196729	Open	-0.1045839
-4.196729	Ordered	-0.09228788
-3.895699	Origano	-0.0969222
-4.196729	Origano!	-0.1046391
-3.418577	Our	-0.1012294
-4.196729	Over	-0.08506905
-4.196729	Overall	-0.1040312
-4.196729	Overall,	-0.100031
-3.895699	Oxford	-0.1045839
-4.196729	Paccheri,	-0.1046391
-3.594669	Pantheon	-0.2147978
-3.895699	Parma	-0.1045563
-4.196729	Parmesan	-0.08665485
-4.196729	Parmesan.	-0.09857741
-4.196729	Parmigiana	-0.1046667
-4.196729	Particularly	-0.1046391
-4.196729	Pasqale	-0.1045287
-3.351631	Pasquale	-0.06843413
-3.719607	Pasquale's	-0.1025354
-4.196729	Pasquale's.	-0.1044182
-4.196729	Pasquale,	-0.1046391
-3.895699	Pasquali	-0.08443309
-4.196729	Pasquali,	-0.1046667
-3.895699	Pasta	-0.2205011
-3.895699	Peepo	-0.1045563
-4.196729	Penguin	-0.1046667
-4.196729	Penistone.	-0.09857741
-3.719607	Pereddies	-0.1025077
-4.196729	Pereddies,	-0.1033948
-4.196729	Pereddies.	-0.09857741
-4.196729	Pereddies’	-0.1046391
-3.719607	Phil	-0.1026187
-4.196729	Phil.	-0.09857741
-4.196729	Piazza	-0.1046667
-3.594669	Pier	-0.1588422
-4.196729	Pimlico	-0.1046391
-3.719607	Pizza	-0.1046115
-4.196729	Pizzas,	-0.1046391
-4.196729	Pizzeria	-0.1027019
-4.196729	Pizzeria,	-0.1043905
-4.196729	Plaxy	-0.1027019
-4.196729	Pleasantly	-0.1046115
-4.196729	Pleased	-0.09919299
-4.196729	Polpo)	-0.08665485
-4.196729	Polpo,	-0.08665485
-3.594669	Popped	-0.4720815
-4.196729	Pork	-0.1046667
-4.196729	Portion	-0.1045563
-4.196729	Portions	-0.1022857
-4.196729	Prepared	-0.1011459
-4.196729	Previous	-0.1046115
-3.594669	Princes	-0.1588146
-4.196729	Print	-0.1046391
-4.196729	Profile	-0.1046391
-4.196729	Promenade,	-0.1046667
-3.895699	Prosciutto	-0.1025909
-4.196729	Puddings,	-0.1032286
-4.196729	Pure	-0.1046391
-4.196729	Quality	-0.08665485
-4.196729	Quite	-0.1046667
-4.196729	RESTAURANT!	-0.1046667
-4.196729	Rapids	-0.1045287
-4.196729	Ravioli	-0.09790487
-4.196729	Read	-0.1046667
-3.497759	Really	-0.144831
-4.196729	Really?	-0.1046391
-3.594669	Restaurant	-0.09689409
-4.196729	Restaurant,	-0.1046391
-4.196729	Rhodes	-0.1046391
-3.895699	River	-0.1046391
-4.196729	Road	-0.1038376
-3.895699	Road,	-0.1046115
-3.895699	Road.	-0.1043353
-4.196729	Roma.	-0.1029792
-3.418577	Roman	-0.1043629
-4.196729	Romans	-0.1041142
-3.497759	Rome	-0.2299059
-4.196729	Rome,	-0.1005052
-4.196729	Rome.	-0.1044458
-4.196729	Rosettes,	-0.1022857
-4.196729	Rospo	-0.1027019
-4.196729	Ruiz,	-0.08506905
-4.196729	Run	-0.1032009
-4.196729	SUCH	-0.09228788
-4.196729	SUPERB!!!	-0.1008117
-4.196729	SW1.	-0.09857741
-4.196729	Sali	-0.1028683
-4.196729	Sambucca,	-0.1013129
-4.196729	Sambucca...We	-0.1018968
-4.196729	Sample	-0.1046391
-4.196729	San	-0.1046667
-4.196729	Sandport	-0.1046391
-4.196729	Sandwiched	-0.1045839
-3.895699	Sardinian	-0.1045839
-4.196729	Sat	-0.1045287
-3.196729	Saturday	-0.1642562
-4.196729	Saturday).	-0.100031
-4.196729	Saturday,	-0.1046667
-4.196729	Scusi	-0.1044182
-4.196729	See,	-0.1046667
-3.895699	Seed	-0.09854941
-4.196729	Series:	-0.1045563
-4.196729	Seriously,	-0.1041142
-3.293639	Service	-0.9826651
-4.196729	Shank	-0.1046667
-4.196729	Share	-0.1046667
-3.895699	Shared	-0.2085643
-3.895699	She	-0.1046115
-4.196729	Shore	-0.104501
-4.196729	Shrewsbury,	-0.09919299
-4.196729	Shrimp	-0.08665485
-4.196729	Signora	-0.1046667
-4.196729	Sila	-0.1046391
-4.196729	Sila,	-0.1036162
-4.196729	Sloane	-0.1046667
-4.196729	Small	-0.1046391
-3.351631	So	-0.1860654
-4.196729	So,	-0.1040036
-4.196729	Soldati	-0.1046667
-4.196729	South	-0.1046667
-3.719607	Spanish	-0.1037823
-4.196729	Speaking	-0.09700652
-4.196729	Special	-0.1018968
-4.196729	Sprovieri,	-0.1044458
-3.895699	Square.	-0.09832533
-4.196729	SquareThe	-0.1046115
-3.895699	St	-0.2185621
-3.594669	Staff	-0.1515458
-4.196729	Start	-0.09919299
-3.719607	Starters	-0.09449816
-3.719607	Street	-0.09531708
-3.895699	Street!	-0.2208603
-3.895699	Street/George	-0.2209155
-4.196729	Stumbled	-0.1046115
-3.895699	Such	-0.2085643
-4.196729	Suffice	-0.09633154
-3.594669	Sun.	-0.4770827
-3.895699	Sunday	-0.09941663
-4.196729	Supplemented	-0.1032009
-4.196729	Sweets	-0.1018134
-4.196729	Sydney	-0.1027019
-4.196729	TREMENDOUS	-0.1046667
-4.196729	TV	-0.1046667
-3.895699	Tables	-0.2185621
-4.196729	Take	-0.09228788
-4.196729	Taste	-0.09700652
-3.895699	Tasted	-0.2206946
-4.196729	Tasty	-0.1026742
-4.196729	Tel:	-0.1046667
-4.196729	Tempio	-0.1046667
-4.196729	Terre	-0.1046667
-3.895699	Thank	-0.2191724
-4.196729	That	-0.1045563
-4.196729	That's	-0.1030346
-4.196729	That’s	-0.1046667
-2.110369	The	-0.2660397
-4.196729	Their	-0.1044182
-3.242486	There	-0.2580357
-4.196729	There's	-0.09228788
-4.196729	There’s	-0.1036162
-3.242486	They	-0.1205979
-4.196729	They,	-0.1037546
-3.117548	This	-0.2590136
-4.196729	Thoroughly	-0.104501
-4.196729	Though	-0.1008117
-3.895699	Three	-0.09697842
-4.196729	Thurlstone	-0.1046391
-3.895699	Thursday	-0.1040312
-3.895699	Ti	-0.2209155
-4.196729	Till	-0.1045563
-3.719607	Tina	-0.09852139
-4.196729	To	-0.1028683
-4.196729	Today	-0.1018134
-4.196729	Tony	-0.1043353
-4.196729	Took	-0.1030346
-4.196729	Traitorously,	-0.1008117
-3.895699	Trinity	-0.1021746
-3.418577	Trip	-0.3149492
-3.719607	Tripadvisor	-0.1605604
-4.196729	Tripadvisor.	-0.1030069
-4.196729	Troiani	-0.1046667
-4.196729	Trullo	-0.08665485
-4.196729	Trusting	-0.1046391
-3.719607	Try	-0.158483
-4.196729	Tube:	-0.1046667
-4.196729	Tue.	-0.1044458
-4.196729	Tuesday	-0.1035886
-3.594669	Tuscan	-0.10428
-4.196729	Tuscany’s	-0.1045839
-4.196729	Twitter	-0.1046115
-4.196729	Two	-0.1040589
-4.196729	Typical	-0.1029792
-4.196729	UK	-0.1045287
-4.196729	UK.	-0.1013129
-4.196729	Unique	-0.1022857
-4.196729	Unlike	-0.08506905
-4.196729	Until	-0.1045563
-4.196729	Unusually	-0.1035055
-4.196729	Unwilling	-0.09633154
-4.196729	Upstairs	-0.1005052
-4.196729	Usher	-0.1046667
-4.196729	VISIT	-0.1046667
-3.895699	Valentine's	-0.1041971
-4.196729	Vascello,	-0.1043905
-4.196729	Veal	-0.09790487
-4.196729	Vegetables	-0.09944458
-4.196729	Venice	-0.100031
-4.196729	Verri	-0.1046667
-3.719607	Very	-0.1023134
-3.196729	Via	-0.12526
-4.196729	Vicolo	-0.1046115
-4.196729	View	-0.1046667
-3.719607	Vine	-0.1744404
-4.196729	Vine,	-0.1037269
-3.719607	Visited	-0.1007003
-4.196729	Vittoria	-0.09790487
-4.196729	Vittoria!	-0.1045839
-4.196729	WON'T	-0.1046667
-4.196729	WOW	-0.1043076
-4.196729	Wales	-0.1046667
-4.196729	Walk	-0.1046667
-4.196729	Walk.	-0.1013129
-3.895699	Was	-0.219505
-3.895699	Washington	-0.2209155
-4.196729	Way.	-0.1046115
-2.411399	We	-0.3421731
-4.196729	We've	-0.1037823
-4.196729	Wed.	-0.1044458
-4.196729	Wednesday	-0.1046391
-4.196729	Well	-0.1045839
-4.196729	Well,	-0.08506905
-3.293639	Went	-0.1971799
-4.196729	West	-0.1046667
-3.351631	What	-0.1462743
-4.196729	Wheel"	-0.1046667
-3.594669	When	-0.09554273
-4.196729	Whenever	-0.09228788
-3.895699	Where	-0.1045563
-3.719607	While	-0.09571187
-4.196729	Whitneys	-0.1046667
-4.196729	Who	-0.1041142
-4.196729	Why	-0.1025355
-4.196729	Wi-fi	-0.1046667
-3.719607	Wife	-0.1598114
-3.895699	Will	-0.2207498
-4.196729	Wines	-0.1034778
-4.196729	Winnerial	-0.1046667
-4.196729	Wisps	-0.09700652
-4.196729	With	-0.1039206
-4.196729	Without	-0.1046667
-3.242486	Would	-0.2258245
-4.196729	Wrong.	-0.09857741
-4.196729	YOU	-0.1046667
-3.895699	Yes	-0.10428
-4.196729	Yorkshire,	-0.1046667
-3.719607	You	-0.1014798
-4.196729	Your	-0.1040036
-4.196729	Yum)	-0.1013129
-4.196729	Zucca,	-0.1046667
-1.550325	a	-0.2292721
-4.196729	aback	-0.1032009
-4.196729	able	-0.09633154
-2.765365	about	-0.2778659
-4.196729	about?	-0.1030069
-3.895699	absolute	-0.1045287
-3.293639	absolutely	-0.1297048
-4.196729	access	-0.09633154
-4.196729	access,	-0.08665485
-4.196729	accolade:	-0.1046667
-3.895699	accommodate	-0.1015354
-3.895699	accommodating	-0.0865685
-3.719607	accompanied	-0.3513986
-4.196729	accompaniment	-0.09633154
-4.196729	accompanying	-0.1046391
-3.719607	according	-0.3445293
-4.196729	accuse	-0.1018134
-4.196729	acidity	-0.09700652
-3.418577	across	-0.1125786
-4.196729	actually	-0.1046667
-4.196729	actually,	-0.1046667
-4.196729	add	-0.09633154
-3.895699	added	-0.09964015
-4.196729	addictively	-0.1046667
-4.196729	address	-0.09944458
-4.196729	adds	-0.08506905
-3.895699	admit	-0.1021746
-4.196729	admitted	-0.09633154
-4.196729	adorning	-0.08506905
-3.895699	adults	-0.07793379
-4.196729	advance	-0.1025632
-4.196729	advance.	-0.1046667
-4.196729	advertisement	-0.09944458
-3.895699	advice	-0.1039206
-4.196729	advise	-0.1045563
-3.719607	advised	-0.1699004
-4.196729	advises	-0.1011459
-3.497759	advisor	-0.1260382
-4.196729	advisor.	-0.100031
-4.196729	aerial	-0.1046667
-4.196729	affluent	-0.1046391
-4.196729	affordability	-0.1038929
-4.196729	affordable	-0.1043629
-2.941456	after	-0.1690932
-4.196729	after.	-0.1045839
-4.196729	afternoon	-0.09919299
-4.196729	afterwards!	-0.1013129
-3.082785	again	-0.09289537
-3.719607	again,	-0.09214579
-3.418577	again.	-0.09328108
-4.196729	against	-0.1046667
-4.196729	age	-0.1046667
-4.196729	aged	-0.1034778
-4.196729	ages	-0.08665485
-4.196729	ages.	-0.09857741
-4.196729	agnoletti	-0.09919299
-3.895699	ago	-0.1035055
-3.895699	ago,	-0.08414372
-3.719607	ago.	-0.1017578
-3.895699	agree	-0.2184788
-3.895699	agreed	-0.09379097
-4.196729	agreement	-0.1022024
-4.196729	ahead	-0.1040312
-4.196729	aim	-0.09633154
-4.196729	air	-0.09700652
-3.293639	al	-0.1306729
-4.196729	albeit	-0.09919299
-4.196729	alcoholic	-0.08665485
-2.377185	all	-0.1723237
-3.594669	all,	-0.06104841
-4.196729	all-important	-0.1046667
-4.196729	alla	-0.1046667
-3.895699	alle	-0.2209155
-4.196729	alley"	-0.08665485
-4.196729	alliteration,	-0.1035886
-4.196729	allow	-0.08506905
-3.895699	allowed	-0.08205451
-4.196729	almond	-0.1046391
-3.594669	almost	-0.1045839
-3.594669	along	-0.09046585
-4.196729	along.	-0.09857741
-3.242486	already	-0.1465452
-4.196729	already.	-0.1030069
-2.781755	also	-0.1815398
-4.196729	also.	-0.1045287
-3.418577	although	-0.140653
-3.082785	always	-0.100756
-3.594669	am	-0.1571266
-3.351631	amazing	-0.08024736
-4.196729	amazing!!!	-0.1030069
-4.196729	amazing,	-0.100031
-4.196729	amazing.	-0.09857741
-4.196729	amazing.I	-0.1044734
-3.895699	ambience	-0.09364939
-4.196729	ambient	-0.09919299
-3.719607	amount	-0.1658531
-4.196729	ample	-0.08665485
-4.196729	amusing	-0.08665485
-2.605664	an	-0.1773731
-4.196729	anchovies	-0.1022024
-4.196729	anchovy	-0.104501
-1.390549	and	-0.115282
-3.497759	and,	-0.09220263
-3.895699	anniversary	-0.09877338
-4.196729	anniversary,	-0.1018134
-3.293639	another	-0.1033671
-4.196729	another,	-0.09633154
-4.196729	anti-elitism,	-0.1044734
-3.895699	anti-elitist	-0.1046391
-3.351631	antipasti	-0.1272611
-4.196729	antipasto	-0.1046667
-4.196729	antipasto,	-0.100031
-4.196729	antlers!	-0.1030069
-3.293639	any	-0.1262855
-4.196729	anybody.	-0.1046115
-3.895699	anyone	-0.1025355
-4.196729	anyone,	-0.1025632
-3.719607	anything	-0.10309
-4.196729	anything.	-0.1013129
-4.196729	anywhere	-0.09944458
-4.196729	apologize	-0.09966808
-3.895699	app	-0.09557093
-4.196729	apparently	-0.1037823
-4.196729	appeal,	-0.08665485
-4.196729	appeal.	-0.09857741
-4.196729	appealed	-0.09633154
-4.196729	appear	-0.09633154
-4.196729	appear,	-0.1043905
-4.196729	appeared	-0.09633154
-4.196729	appetiser	-0.09700652
-4.196729	apple.	-0.1046391
-4.196729	appreciate	-0.1018134
-4.196729	appreciated.	-0.09857741
-4.196729	arch	-0.1046667
-4.196729	arches.	-0.1040312
-2.25721	are	-0.1012058
-3.351631	area	-0.06966294
-4.196729	area,	-0.1025632
-4.196729	arguably	-0.08506905
-4.196729	aroma	-0.09700652
-3.155336	around	-0.1768541
-4.196729	around,	-0.1045839
-4.196729	arrabiata	-0.1046667
-4.196729	arrangements	-0.09966808
-4.196729	array	-0.09700652
-4.196729	arrayed	-0.1046667
-4.196729	arrival	-0.1022857
-4.196729	arrive	-0.1046667
-3.594669	arrived	-0.07406995
-4.196729	arrived,	-0.1046667
-3.895699	arriving	-0.1007003
-4.196729	art	-0.1046667
-4.196729	artichokes	-0.1046667
-3.895699	artichokes.	-0.2175893
-4.196729	artisan	-0.1046667
-2.310238	as	-0.1655222
-4.196729	as,	-0.1018134
-4.196729	aside	-0.100031
-3.594669	ask	-0.09891329
-3.351631	asked	-0.1188924
-4.196729	asked?	-0.104501
-4.196729	asking	-0.1040036
-4.196729	asking,	-0.08506905
-4.196729	asks	-0.09966808
-3.895699	asparagus	-0.08662607
-4.196729	assumption	-0.1022024
-4.196729	assured	-0.1043076
-4.196729	assured,	-0.08506905
-2.383815	at	-0.2523518
-3.594669	ate	-0.1575977
-3.418577	atmosphere	-0.05576557
-3.719607	atmosphere,	-0.09852139
-3.418577	atmosphere.	-0.2016959
-4.196729	atmospheric	-0.1031177
-4.196729	atmospheric.	-0.09857741
-4.196729	attends	-0.09633154
-3.895699	attention	-0.0963034
-3.719607	attentive	-0.08112272
-3.895699	attentive,	-0.08555982
-3.594669	attentive.	-0.1527237
-4.196729	attentive.Food	-0.09790487
-4.196729	attentiveness	-0.09700652
-4.196729	attraction.	-0.09857741
-4.196729	attracts	-0.08506905
-4.196729	au	-0.1046667
-4.196729	aubergine	-0.1046667
-4.196729	auctions	-0.09228788
-4.196729	august	-0.08665485
-3.155336	authentic	-0.5146747
-4.196729	authentic.	-0.1045563
-4.196729	authenticity	-0.1032009
-3.895699	available	-0.08443309
-3.497759	average	-0.1456359
-4.196729	average.	-0.1013129
-3.895699	avocado	-0.2029313
-4.196729	avocado,	-0.1046115
-4.196729	avoid	-0.1046115
-4.196729	awaits	-0.102896
-3.895699	award	-0.2208879
-4.196729	awarded	-0.09228788
-3.293639	away	-0.1630337
-4.196729	away.	-0.09857741
-4.196729	babies	-0.09944458
-4.196729	baby	-0.1044182
-2.835001	back	-0.1216531
-4.196729	back!	-0.1046667
-4.196729	back-ground	-0.1046667
-3.719607	back.	-0.1037823
-4.196729	back......thanks	-0.1046115
-4.196729	backed	-0.1032009
-3.719607	background	-0.104501
-4.196729	backwards	-0.09633154
-4.196729	bacon.	-0.09857741
-3.594669	bad	-0.1043629
-4.196729	badge	-0.09857741
-3.895699	baked	-0.09916504
-4.196729	bakery	-0.1027019
-4.196729	balance	-0.1046667
-4.196729	balanced	-0.1045563
-3.719607	balsamic	-0.09223104
-4.196729	balsamic.	-0.1045287
-4.196729	bank.	-0.1043629
-3.196729	bar	-0.1261052
-4.196729	bar,	-0.1045563
-4.196729	bare	-0.1046667
-4.196729	barely	-0.1046115
-4.196729	barriers	-0.1032286
-4.196729	bars	-0.08665485
-3.895699	base	-0.1039206
-3.719607	based	-0.1038653
-4.196729	basement,	-0.1041971
-4.196729	basic	-0.104501
-4.196729	basil"	-0.1046115
-4.196729	basis!!	-0.1044734
-4.196729	basket	-0.1046115
-3.719607	bass	-0.1605316
-4.196729	batch,	-0.1046391
-4.196729	batter	-0.08665485
-2.383815	be	-0.1181214
-4.196729	be,	-0.08665485
-4.196729	be.	-0.1013129
-4.196729	beam	-0.1039482
-4.196729	beamed	-0.1046667
-4.196729	beams	-0.08665485
-4.196729	bean	-0.1045839
-4.196729	bean,	-0.1046115
-4.196729	beans	-0.09919299
-4.196729	beans,	-0.1046667
-3.594669	beautiful	-0.1043629
-3.895699	beautiful,	-0.1019802
-3.594669	beautifully	-0.09905316
-3.594669	because	-0.06257215
-4.196729	because,	-0.1025632
-3.895699	become	-0.1036716
-4.196729	bed	-0.09700652
-3.719607	beef	-0.08625173
-4.196729	beef,	-0.1037269
-2.678215	been	-0.1565922
-4.196729	been,	-0.100031
-3.895699	beer	-0.09882934
-4.196729	beer.	-0.1044734
-4.196729	beers	-0.08665485
-3.050601	before	-0.106303
-3.895699	before,	-0.09891329
-4.196729	behaving	-0.1046391
-4.196729	behind	-0.09228788
-3.418577	being	-0.1383881
-3.895699	believe	-0.1021191
-3.719607	bella	-0.1046115
-4.196729	below	-0.08506905
-4.196729	bend	-0.1042247
-4.196729	benedict	-0.09857741
-4.196729	berlotti	-0.1046667
-4.196729	beside	-0.09228788
-4.196729	bespoke	-0.1045287
-2.816518	best	-0.1830599
-4.196729	best.	-0.100031
-4.196729	best.Went	-0.1044182
-3.293639	better	-0.155453
-4.196729	better,	-0.1032286
-4.196729	better.	-0.1045287
-3.594669	between	-0.0835354
-4.196729	bianco	-0.1046667
-4.196729	bid	-0.09633154
-3.418577	big	-0.1004216
-4.196729	big-name	-0.1044734
-3.895699	bigger	-0.1042247
-4.196729	biggest	-0.09700652
-3.895699	bill	-0.09714701
-4.196729	birds.	-0.1013129
-3.497759	birthday	-0.0855021
-4.196729	birthday"	-0.1040312
-4.196729	birthday.	-0.09857741
-3.351631	bit	-0.1856431
-4.196729	bite.	-0.1013129
-3.895699	black	-0.1046391
-4.196729	blackboard	-0.1040589
-4.196729	bland	-0.08665485
-4.196729	bleak	-0.1045563
-4.196729	blended	-0.1046667
-4.196729	blew	-0.1030346
-4.196729	blurb	-0.1011459
-4.196729	blurbs	-0.1043905
-3.895699	board	-0.09140629
-4.196729	board,	-0.1037269
-4.196729	board.	-0.1030069
-4.196729	boards	-0.09944458
-4.196729	boat	-0.09919299
-4.196729	bodied.	-0.09857741
-3.719607	bol	-0.176221
-4.196729	bolignase	-0.09228788
-4.196729	bolognese	-0.1044458
-4.196729	boneless	-0.1046667
-4.196729	bonniest.	-0.09857741
-3.895699	book	-0.1046391
-4.196729	book,	-0.1022857
-3.719607	book.	-0.1779667
-3.242486	booked	-0.1117318
-4.196729	booked.	-0.09857741
-3.497759	booking	-0.1267049
-4.196729	booking.	-0.09857741
-4.196729	border!	-0.09857741
-4.196729	borlotti	-0.1046667
-4.196729	born	-0.1046667
-3.020638	both	-0.0780915
-4.196729	bother	-0.09919299
-4.196729	bothered	-0.1045839
-4.196729	bottarga	-0.1046667
-3.594669	bottle	-0.250294
-4.196729	bottle,	-0.1025355
-3.719607	bottles	-0.1685178
-4.196729	bottles.	-0.1046667
-4.196729	bottomless	-0.1046667
-4.196729	bounce	-0.1043353
-3.497759	bowl	-0.5936586
-4.196729	bowls.	-0.1044458
-4.196729	boy,	-0.1046667
-3.418577	boyfriend	-0.1886881
-4.196729	brands	-0.1038653
-4.196729	brandy	-0.08665485
-3.082785	bread	-0.2515774
-3.719607	bread,	-0.1599267
-4.196729	bread.	-0.1046115
-3.895699	breaded	-0.1045839
-4.196729	breads	-0.08665485
-4.196729	breads"	-0.1046667
-4.196729	breads.	-0.1046391
-3.594669	break	-0.1146958
-3.351631	breakfast	-0.1251205
-3.895699	breakfast,	-0.1045839
-4.196729	breakfast.	-0.09857741
-4.196729	breaking	-0.1043629
-4.196729	breathes	-0.1046667
-4.196729	breeze	-0.08665485
-3.895699	brick	-0.1046391
-3.895699	bridge	-0.07957507
-4.196729	bridges,	-0.1018134
-4.196729	bright	-0.08665485
-4.196729	brightens	-0.1038929
-4.196729	brill	-0.09944458
-3.895699	brilliant	-0.1034778
-3.895699	brilliant,	-0.08295527
-4.196729	brilliant.	-0.1013129
-4.196729	brilliantly,	-0.1025632
-4.196729	brimming	-0.09919299
-4.196729	brisk.	-0.09857741
-4.196729	broken	-0.1038929
-4.196729	broth	-0.1005052
-3.895699	brothers	-0.1026187
-4.196729	brothers,	-0.1046667
-3.895699	brothers’	-0.1045563
-4.196729	brought	-0.1039759
-4.196729	browsing	-0.1044458
-3.418577	bruschetta	-0.1209399
-4.196729	bruschettas	-0.09228788
-4.196729	budding	-0.1046667
-4.196729	buffalo	-0.1046391
-4.196729	built	-0.1045563
-3.895699	burrata	-0.08651093
-4.196729	busiest	-0.1032286
-3.719607	business	-0.09180464
-4.196729	business,	-0.08665485
-4.196729	business.	-0.1046391
-4.196729	bustle	-0.1046667
-3.293639	busy	-0.1243401
-4.196729	busy,	-0.1035332
-2.25721	but	-0.1316275
-4.196729	butchers….not	-0.08506905
-3.895699	butter	-0.08653972
-4.196729	buttery	-0.1042247
-4.196729	buyer	-0.08665485
-4.196729	buzz	-0.1039482
-4.196729	buzzes	-0.1046667
-3.895699	buzzing	-0.0847801
-4.196729	buzzy,	-0.1046391
-2.464335	by	-0.3109669
-4.196729	c.25	-0.1044734
-4.196729	cabinet	-0.1046115
-4.196729	cacio	-0.1046391
-4.196729	cafes,	-0.1046667
-3.895699	cake	-0.09706272
-4.196729	cake.	-0.09857741
-4.196729	cakey	-0.1045563
-3.895699	calamari	-0.08662607
-4.196729	call	-0.09944458
-3.719607	called	-0.09576824
-3.895699	calvados	-0.1043076
-3.895699	calzone	-0.09756821
-4.196729	calzone;	-0.1039206
-2.96628	came	-0.263225
-2.734331	can	-0.1352102
-3.719607	can't	-0.1027019
-3.895699	candles	-0.08405687
-4.196729	cannelloni,	-0.1022857
-3.719607	cannot	-0.1043629
-4.196729	capers,	-0.1046391
-4.196729	capers.	-0.09857741
-4.196729	capital.	-0.1042247
-4.196729	cappuccino	-0.1046667
-4.196729	captures	-0.1041971
-4.196729	capuccino,	-0.1022024
-3.895699	car	-0.1046391
-4.196729	car,	-0.09790487
-4.196729	caramel	-0.08665485
-4.196729	caramelised	-0.1046667
-3.895699	carbonara	-0.0865685
-4.196729	carbonara.	-0.09857741
-3.719607	care	-0.1526011
-3.895699	carefully	-0.1041142
-4.196729	carrots	-0.09633154
-4.196729	carrots,	-0.1046391
-4.196729	case	-0.1005052
-4.196729	cash	-0.1046667
-4.196729	catatonically	-0.102896
-4.196729	catch.	-0.1013129
-4.196729	cater	-0.09966808
-4.196729	catering	-0.1046667
-4.196729	cauliflower	-0.1046115
-4.196729	caution,	-0.1046391
-4.196729	ceciliametella.com.	-0.1044458
-4.196729	ceilings	-0.08665485
-4.196729	celebrating	-0.1033948
-4.196729	celebrations	-0.08665485
-4.196729	celeriac	-0.1046667
-4.196729	celery,	-0.1046667
-4.196729	central	-0.1042247
-4.196729	centre.	-0.1013129
-3.719607	certainly	-0.1040035
-3.719607	chain	-0.1020913
-4.196729	chain.	-0.1046391
-4.196729	champagne	-0.1044182
-4.196729	chance	-0.100031
-4.196729	chance,	-0.08665485
-4.196729	change	-0.1008117
-3.895699	change.	-0.09854941
-4.196729	chaotic,	-0.1022857
-3.594669	character	-0.127943
-4.196729	charcuterie	-0.08665485
-4.196729	chargrilled	-0.1046667
-4.196729	charismatic	-0.1045287
-3.895699	charm	-0.1009788
-3.895699	charm,	-0.09568369
-4.196729	charming	-0.09944458
-4.196729	chasm	-0.1045839
-3.895699	chat	-0.09072255
-4.196729	chat.	-0.1013129
-3.895699	chatted	-0.08587709
-4.196729	chatting	-0.08665485
-4.196729	chatting.	-0.1046667
-4.196729	chatty,	-0.08506905
-4.196729	chauvinist	-0.104501
-3.719607	cheap	-0.1736033
-4.196729	cheap'n'cheerful'n'only	-0.1045839
-4.196729	cheap-average	-0.09966808
-4.196729	cheap’n’cheerful	-0.1046115
-4.196729	check	-0.1040312
-4.196729	checking	-0.1045563
-4.196729	cheerful	-0.08665485
-4.196729	cheerful.	-0.1046667
-4.196729	cheerfully	-0.1046667
-4.196729	cheery	-0.09919299
-3.497759	cheese	-0.11698
-3.594669	cheese,	-0.09908113
-3.719607	cheesecake	-0.07424767
-4.196729	cheeses,	-0.1046115
-4.196729	cheesey	-0.1043353
-3.895699	cheesy	-0.2206117
-3.293639	chef	-0.1277344
-3.895699	chef's	-0.2209155
-3.719607	chefs	-0.10173
-4.196729	chefs’	-0.1046391
-3.418577	chicken	-0.1209976
-3.895699	chickpeas	-0.08653972
-3.895699	children	-0.1022857
-4.196729	children.	-0.1045287
-4.196729	chili	-0.1046667
-4.196729	chilled	-0.104501
-4.196729	chilled-out	-0.1045839
-3.895699	chilli	-0.1046391
-4.196729	chillies,	-0.1046667
-3.594669	chocolate	-0.08642454
-3.293639	choice	-0.2394108
-4.196729	choice!	-0.1013129
-3.719607	choice,	-0.1031454
-4.196729	choice.	-0.1045563
-3.719607	choices	-0.08983776
-3.895699	choices,	-0.1045839
-4.196729	choices.	-0.1046667
-3.497759	choose	-0.11356
-4.196729	chooses	-0.08506905
-4.196729	chopped	-0.1044734
-4.196729	chops	-0.1018134
-4.196729	chorizo,	-0.1042524
-3.351631	chose	-0.1981109
-3.594669	chosen	-0.2708211
-4.196729	ciabatta.	-0.1013129
-4.196729	cinema”	-0.1046391
-4.196729	circles	-0.09919299
-4.196729	circulated	-0.08506905
-3.594669	city	-0.2582246
-3.719607	city.	-0.09316766
-4.196729	clam	-0.08665485
-3.719607	class	-0.08541552
-4.196729	class,	-0.1022857
-4.196729	class.	-0.1044182
-3.594669	classic	-0.2184787
-4.196729	classics	-0.1046667
-4.196729	cleared.	-0.1013129
-3.895699	clearly	-0.1046391
-4.196729	clever	-0.1046391
-4.196729	clever,	-0.1046667
-4.196729	cleverly	-0.1046667
-4.196729	clientele	-0.1041142
-3.895699	clientele.	-0.09514779
-3.895699	close	-0.08504016
-4.196729	close.	-0.1046667
-4.196729	closed,	-0.1045563
-3.895699	closer	-0.219505
-4.196729	closer,	-0.1041694
-3.895699	closing	-0.1040865
-4.196729	clouds	-0.09700652
-4.196729	coat"	-0.1045563
-4.196729	coats,	-0.1040036
-4.196729	cocktail	-0.1044182
-3.719607	cocktails	-0.1010345
-3.895699	cocktails,	-0.09863341
-4.196729	cod	-0.1045839
-3.497759	coffee	-0.09052291
-4.196729	coffee,	-0.1046667
-4.196729	coffee.	-0.1046667
-3.895699	coffees	-0.08651093
-4.196729	coffees.	-0.1046391
-3.594669	cold	-0.1040035
-4.196729	cold,	-0.1046667
-3.719607	colour	-0.08659727
-4.196729	combined	-0.1045839
-3.895699	combines	-0.104501
-3.082785	come	-0.1475346
-3.418577	comes	-0.08817754
-3.497759	comfortable	-0.146882
-4.196729	comfortable.	-0.1043629
-4.196729	comfortingly	-0.1046667
-3.594669	coming	-0.09796095
-4.196729	coming!	-0.1046667
-4.196729	commenced	-0.1011459
-4.196729	comment	-0.1011459
-3.719607	commented	-0.09905315
-4.196729	comments	-0.1046667
-4.196729	companion	-0.1018968
-4.196729	company	-0.08665485
-4.196729	competitors	-0.1043905
-4.196729	complaint	-0.1039482
-3.895699	complemented	-0.2194773
-4.196729	complete	-0.09919299
-4.196729	completely	-0.1032009
-4.196729	completes	-0.08506905
-4.196729	complicated	-0.1044734
-4.196729	complimentary	-0.1046667
-3.895699	complimented	-0.08472228
-4.196729	compliments	-0.1032009
-3.895699	compote	-0.2029313
-4.196729	conducted	-0.09944458
-4.196729	confession,	-0.100031
-4.196729	confit	-0.1046391
-4.196729	confused	-0.09919299
-4.196729	confusion	-0.09700652
-4.196729	conscious	-0.1022024
-4.196729	consecutive	-0.1046391
-4.196729	consider	-0.1026742
-4.196729	considering	-0.08506905
-4.196729	consistency	-0.09919299
-4.196729	consistency,	-0.1046667
-4.196729	consistently	-0.1046667
-4.196729	consumption	-0.08665485
-4.196729	contentedly	-0.1028683
-4.196729	continued	-0.09633154
-4.196729	contrast.	-0.09857741
-4.196729	contributory	-0.1046667
-4.196729	control.	-0.1046667
-4.196729	cook.	-0.1046391
-3.155336	cooked	-0.1625417
-4.196729	cooked,	-0.08506905
-3.418577	cooking	-0.2319174
-4.196729	cooking.	-0.09857741
-4.196729	cooking.Bridgnorth	-0.1046391
-4.196729	coooked	-0.09633154
-4.196729	cope	-0.09919299
-3.719607	corner	-0.101452
-4.196729	cornerstone	-0.102896
-3.895699	cost	-0.09745593
-4.196729	cost.	-0.1046115
-4.196729	costs	-0.1039482
-3.594669	cosy	-0.07890171
-3.895699	cotta	-0.09745593
-4.196729	cottage	-0.1022024
-2.874509	could	-0.1689137
-3.418577	couldn't	-0.1362763
-3.895699	couldn’t	-0.1046115
-4.196729	counterbalance	-0.09633154
-3.196729	couple	-1.096978
-4.196729	couples	-0.1043353
-4.196729	couples,	-0.08665485
-4.196729	couples.	-0.1044458
-4.196729	couples/adult	-0.1046667
-4.196729	courant	-0.1045563
-4.196729	courgette	-0.1022857
-4.196729	courgettes,	-0.1046667
-3.351631	course	-0.06644871
-3.895699	course,	-0.1037546
-4.196729	course....	-0.1046667
-3.351631	courses	-0.1130385
-4.196729	courses,	-0.1045287
-4.196729	courteous	-0.08665485
-3.895699	courteous,	-0.2199203
-4.196729	cover	-0.08665485
-4.196729	covered	-0.09944458
-4.196729	covers	-0.1043076
-4.196729	covers)	-0.1025632
-3.895699	covers.	-0.1043353
-4.196729	cows	-0.1045287
-4.196729	cozy	-0.1046667
-4.196729	cozy,	-0.08665485
-3.895699	crab	-0.1026742
-3.719607	crabmeat	-0.09228787
-4.196729	crack	-0.1036162
-4.196729	crackers	-0.1042247
-4.196729	cracking	-0.1046667
-3.351631	cream	-0.05927415
-4.196729	cream!	-0.1013129
-4.196729	cream,	-0.1045839
-4.196729	creamed	-0.1046667
-4.196729	creams	-0.1040036
-4.196729	creams,	-0.1008117
-3.418577	creamy	-0.09026612
-3.719607	create	-0.1028128
-4.196729	created	-0.09919299
-4.196729	creating	-0.08506905
-3.895699	creation	-0.09860541
-4.196729	creations	-0.1037269
-4.196729	creations.	-0.1043629
-3.895699	creative	-0.1045839
-4.196729	crenulated	-0.1046667
-3.895699	crisp	-0.1044182
-4.196729	crisp,	-0.1044458
-3.895699	crispy	-0.1040865
-4.196729	crispy,	-0.1046667
-4.196729	croissant	-0.1038653
-4.196729	croissants,	-0.1046667
-4.196729	cross	-0.1045839
-4.196729	crostino	-0.09700652
-3.719607	crowded	-0.1603301
-4.196729	crowds	-0.1018134
-4.196729	crunch),	-0.1045563
-4.196729	crust	-0.102896
-4.196729	cucina	-0.1046667
-3.895699	cucumber,	-0.1044458
-3.497759	cuisine	-0.09191839
-4.196729	cuisine,	-0.1025632
-3.895699	culinary	-0.1046391
-4.196729	cunningly	-0.1046667
-4.196729	custardy	-0.1046667
-3.895699	customer	-0.1020635
-4.196729	customer.	-0.104501
-3.594669	customers	-0.09888531
-4.196729	dad)	-0.09966808
-3.895699	daily	-0.2206946
-3.719607	dairy	-0.09350775
-3.895699	dancing	-0.09908114
-3.895699	dark	-0.08512681
-4.196729	date,	-0.1022857
-4.196729	date.	-0.09857741
-4.196729	daughter-in-law	-0.09700652
-3.117548	day	-0.128791
-3.895699	day,	-0.1029237
-3.418577	day.	-0.1707167
-3.719607	days	-0.1045286
-4.196729	days,	-0.08665485
-4.196729	days.	-0.09857741
-4.196729	de	-0.1046667
-4.196729	deal-	-0.1045287
-4.196729	decades	-0.09700652
-4.196729	decide	-0.1025632
-3.895699	decided	-0.2126079
-3.719607	deciding	-0.1695904
-4.196729	decision	-0.1041142
-3.895699	decisions	-0.1025909
-4.196729	declared	-0.1018134
-3.719607	decor	-0.08826355
-4.196729	decor,	-0.1046391
-4.196729	decor.	-0.1013129
-4.196729	decorations.	-0.1013129
-4.196729	deer's	-0.1045563
-4.196729	def	-0.1045839
-4.196729	defiantly	-0.102896
-3.895699	definately	-0.2204735
-4.196729	defines	-0.08506905
-4.196729	definite	-0.1046667
-2.941456	definitely	-0.2787756
-3.719607	dei	-0.1046115
-3.895699	del	-0.2208603
-4.196729	delay	-0.09944458
-4.196729	delectable	-0.08665485
-4.196729	deli	-0.1045839
-4.196729	deli,	-0.100031
-4.196729	deliberation,	-0.100031
-4.196729	delicate	-0.1044734
-2.941456	delicious	-0.2399969
-3.719607	delicious,	-0.09891327
-3.418577	delicious.	-0.1299636
-4.196729	deliciously	-0.1046667
-3.895699	delight	-0.08587709
-4.196729	delighted	-0.1039482
-4.196729	delightful	-0.1029792
-4.196729	delights	-0.1025632
-4.196729	delineated	-0.1034778
-3.719607	delivered	-0.06475697
-4.196729	dell'Orso	-0.09944458
-4.196729	della	-0.1046667
-4.196729	demand	-0.09966808
-4.196729	dente	-0.1046667
-4.196729	dente,	-0.1041694
-4.196729	depends	-0.1039482
-4.196729	deplorable	-0.1044458
-4.196729	depth	-0.09700652
-4.196729	derives	-0.1034778
-4.196729	descended	-0.1044182
-4.196729	describe	-0.08506905
-4.196729	described	-0.1018134
-4.196729	deserts	-0.1025632
-3.895699	deserves	-0.08492459
-4.196729	design.	-0.1040312
-4.196729	designed	-0.09633154
-4.196729	designer	-0.1026742
-3.895699	despite	-0.1046115
-3.418577	dessert	-0.09754015
-3.895699	dessert,	-0.09838136
-4.196729	dessert.	-0.1044458
-3.293639	desserts	-0.09833306
-4.196729	desserts,	-0.102896
-3.719607	desserts.	-0.1748584
-4.196729	destinations	-0.09700652
-4.196729	detail	-0.09944458
-4.196729	details	-0.09857741
-3.497759	di	-0.1044734
-4.196729	diana	-0.08665485
-3.719607	did	-0.1764708
-3.895699	did!	-0.2205011
-4.196729	did,	-0.08506905
-3.594669	didn't	-0.1003379
-3.895699	didnt	-0.10248
-3.895699	didn’t	-0.1036993
-4.196729	die	-0.1046667
-4.196729	difference	-0.09857741
-3.050601	different	-0.1332326
-3.895699	difficult	-0.09415887
-4.196729	difficult.	-0.1046115
-4.196729	dignity	-0.09633154
-3.719607	dined	-0.1759711
-3.719607	diners	-0.0981852
-3.719607	dining	-0.1782984
-3.418577	dinner	-0.1142227
-4.196729	dinner)	-0.08665485
-4.196729	dinner,	-0.08506905
-3.895699	dinner.	-0.09991938
-3.895699	dip	-0.2029313
-4.196729	dip?	-0.09857741
-4.196729	disapointed.	-0.1041142
-4.196729	disappearing	-0.1046115
-4.196729	disappoint!!	-0.1046667
-3.895699	disappointed	-0.09542993
-3.895699	disappointed,	-0.09790487
-3.719607	disappointed.	-0.1045286
-4.196729	disappointment	-0.08665485
-4.196729	disappointment.	-0.1030069
-4.196729	disappointments.	-0.09857741
-4.196729	disappoints	-0.1035055
-4.196729	disaster	-0.09790487
-4.196729	discovered	-0.1005052
-4.196729	discussion.	-0.1046667
-2.96628	dish	-0.09623592
-3.719607	dish.	-0.1735753
-2.941456	dishes	-0.1685662
-3.418577	dishes,	-0.07972132
-3.895699	dishes.	-0.1046391
-3.895699	dismal	-0.1044734
-3.155336	do	-0.08744946
-4.196729	does	-0.1032286
-3.895699	doesn't	-0.1028683
-4.196729	doesnt	-0.1046667
-4.196729	doesn’t	-0.1046667
-4.196729	dolcelatte	-0.1045839
-4.196729	domenicos	-0.09966808
-3.155336	don't	-0.12235
-3.594669	done	-0.08094779
-4.196729	dons	-0.09700652
-3.497759	door	-0.1225721
-4.196729	doors	-0.1039482
-4.196729	double	-0.1038929
-4.196729	doubt	-0.1018134
-4.196729	doubt.	-0.1013129
-3.719607	dough	-0.09782071
-4.196729	dough,	-0.102896
-4.196729	doughs	-0.09966808
-3.117548	down	-0.1935151
-4.196729	down.	-0.1044182
-4.196729	downstairs	-0.08665485
-4.196729	downstairs.	-0.09857741
-4.196729	dozens	-0.09700652
-4.196729	dream,	-0.1046391
-4.196729	dressed	-0.09919299
-4.196729	dried	-0.1046667
-3.719607	drink	-0.1599267
-4.196729	drinking	-0.1044182
-3.719607	drinks	-0.1001984
-3.895699	drinks)	-0.2180898
-4.196729	drinks,	-0.08665485
-3.895699	drinks.	-0.09835335
-3.719607	driving	-0.08365133
-4.196729	drops	-0.09700652
-4.196729	drove	-0.1040589
-4.196729	drove.	-0.09857741
-4.196729	dry	-0.1046391
-4.196729	due	-0.09633154
-4.196729	dug	-0.1044182
-3.497759	during	-0.1255447
-3.895699	e	-0.1046115
-3.117548	each	-0.09653829
-4.196729	eager	-0.09633154
-4.196729	earlier	-0.1046115
-3.293639	early	-0.1501675
-4.196729	earth	-0.08665485
-4.196729	earthy	-0.1046391
-4.196729	easily	-0.1028683
-3.594669	easy	-0.2664933
-3.082785	eat	-0.2033544
-4.196729	eat)	-0.1046667
-3.895699	eat.	-0.1044458
-3.895699	eaten	-0.1045563
-4.196729	eaten.	-0.1041142
-4.196729	eaterie.The	-0.1037546
-4.196729	eateries	-0.1046667
-4.196729	eateries,	-0.1045839
-4.196729	eaters!)	-0.1046391
-3.895699	eating	-0.1038099
-4.196729	eating-out	-0.1046391
-4.196729	eats’	-0.1046667
-4.196729	eclectic	-0.1046391
-4.196729	edges.	-0.1013129
-4.196729	edinbourgh	-0.09966808
-4.196729	edinbourgh.	-0.1041142
-4.196729	edinburgh.	-0.100031
-4.196729	effete	-0.1046115
-4.196729	efficient	-0.1046667
-4.196729	efficient.	-0.1042247
-4.196729	effortlessly.	-0.1046667
-4.196729	eggs	-0.1046667
-4.196729	eggs.	-0.1013129
-4.196729	eggshell	-0.1045563
-4.196729	eight	-0.1043629
-3.895699	either.	-0.09854941
-4.196729	eitherside	-0.10428
-3.719607	elegant	-0.1042523
-4.196729	elitists	-0.1046667
-3.895699	else	-0.1035332
-4.196729	elsewhere.	-0.1046667
-4.196729	emergency	-0.1046667
-4.196729	employed	-0.08665485
-4.196729	enchanting	-0.104501
-4.196729	encouraged	-0.09633154
-3.719607	end	-0.1509857
-4.196729	end,	-0.1043629
-3.895699	ended	-0.1028128
-4.196729	endinburgh	-0.102896
-4.196729	engagingly	-0.09919299
-4.196729	english	-0.1046391
-3.497759	enjoy	-0.1247308
-4.196729	enjoyable	-0.1046667
-3.242486	enjoyed	-0.1167817
-4.196729	enjoyed.	-0.1046667
-3.719607	enjoying	-0.08362235
-4.196729	enjoyment	-0.09700652
-4.196729	enormous	-0.1046391
-3.351631	enough	-0.1746022
-4.196729	enough.	-0.1045563
-4.196729	ensure	-0.1022024
-4.196729	entering.	-0.1045839
-4.196729	enterprise	-0.1005052
-4.196729	entertainer,	-0.1046667
-4.196729	entertaining	-0.09633154
-4.196729	enthuses	-0.08506905
-4.196729	enthusiastic	-0.1046391
-4.196729	enthusiastically	-0.08665485
-4.196729	entire	-0.1040312
-4.196729	entirely	-0.1011459
-4.196729	entrance	-0.1046667
-4.196729	entrance,	-0.1046667
-4.196729	entranced	-0.102896
-4.196729	entree.	-0.1046391
-4.196729	entry.	-0.100031
-4.196729	entrée,	-0.1046667
-4.196729	entrée.	-0.1045839
-4.196729	entrées.	-0.1046115
-4.196729	environment	-0.1022024
-4.196729	envy,	-0.1008117
-4.196729	equal	-0.09700652
-4.196729	equally	-0.1044734
-4.196729	erased.	-0.09857741
-4.196729	erm,	-0.1045839
-4.196729	escape	-0.1034778
-3.895699	especially	-0.08504016
-4.196729	espresso,	-0.09919299
-4.196729	essay	-0.1011459
-4.196729	essentially	-0.1046115
-4.196729	establish	-0.09228788
-4.196729	etc	-0.1022857
-4.196729	etc)	-0.1034778
-3.895699	ethos	-0.09188997
-4.196729	euphoria,	-0.1040036
-3.082785	even	-0.09520857
-3.117548	evening	-0.138913
-4.196729	evening!	-0.104501
-3.719607	evening,	-0.08382517
-3.719607	evening.	-0.1039206
-4.196729	evening.Will	-0.1041971
-4.196729	evenings	-0.1045839
-3.895699	evening’s	-0.1041142
-3.293639	ever	-0.1737614
-3.242486	every	-0.1265663
-3.497759	everyone	-0.08780453
-3.594669	everything	-0.1509556
-4.196729	everything!	-0.1046667
-4.196729	ex-boss,	-0.1046667
-3.719607	exactly	-0.08211267
-4.196729	exam	-0.1046667
-4.196729	excelent.	-0.1046667
-2.749571	excellent	-0.1670415
-3.895699	excellent,	-0.1018968
-3.895699	excellent.	-0.1046391
-4.196729	except	-0.1045563
-4.196729	exception.	-0.1045287
-4.196729	exceptional	-0.1035055
-4.196729	exceptional,	-0.1026187
-4.196729	exceptional.	-0.1030069
-4.196729	exceptional...and	-0.1046667
-4.196729	exceptions	-0.1027019
-4.196729	excitable	-0.1045563
-4.196729	excited	-0.1046667
-4.196729	exciting	-0.1046667
-4.196729	excluding	-0.1044734
-4.196729	excuse	-0.09633154
-4.196729	exemplary	-0.1037269
-3.895699	expected	-0.1037546
-3.719607	expected.	-0.09619077
-3.895699	expecting	-0.2013454
-4.196729	expensive	-0.1045839
-4.196729	expensive:	-0.1046391
-3.418577	experience	-0.09265705
-4.196729	experience.	-0.09857741
-4.196729	experienced	-0.1042247
-4.196729	expertly	-0.1045839
-4.196729	expierence	-0.09700652
-4.196729	explained	-0.1035886
-4.196729	explains	-0.1046115
-4.196729	express	-0.1005052
-4.196729	extended	-0.1040589
-3.895699	extensive	-0.1020913
-4.196729	exterior	-0.1046667
-3.895699	extra	-0.1046391
-4.196729	extreme	-0.1046667
-3.351631	extremely	-0.1333711
-4.196729	eyes	-0.09700652
-4.196729	fabulous	-0.1035055
-4.196729	face.	-0.09857741
-4.196729	faced	-0.09919299
-3.719607	fact	-0.1564247
-4.196729	fact,	-0.1018134
-4.196729	factor	-0.09944458
-3.895699	fagioli	-0.101591
-3.895699	fair	-0.1045287
-3.895699	fairly	-0.104501
-4.196729	fairylights	-0.1011459
-3.719607	families	-0.08088946
-4.196729	families”	-0.1046667
-2.835001	family	-0.2897586
-4.196729	family-style	-0.1046667
-3.895699	family.	-0.0985214
-4.196729	famous	-0.1046667
-4.196729	fan	-0.1022857
-4.196729	fan,	-0.1025355
-4.196729	fancied	-0.09228788
-3.719607	fancy	-0.09220263
-4.196729	fancy.	-0.1046115
-4.196729	fans.	-0.1046667
-4.196729	fantasitic	-0.1040312
-3.293639	fantastic	-0.3242325
-3.895699	fantastic,	-0.1020357
-3.895699	fantastic.	-0.2208327
-4.196729	fantastic.I	-0.1043353
-3.719607	far	-0.08246152
-4.196729	fare.	-0.1046667
-4.196729	faro	-0.1045839
-4.196729	fashionable	-0.1036993
-4.196729	father	-0.1046667
-4.196729	father,	-0.104501
-3.594669	fault	-0.07910676
-4.196729	faulted	-0.1040036
-3.351631	favourite	-0.101118
-4.196729	favourite).	-0.1040312
-4.196729	favourite,	-0.1046667
-3.895699	favourites	-0.09613447
-3.895699	feast	-0.09784877
-4.196729	featured	-0.09944458
-4.196729	features	-0.10428
-4.196729	feedback	-0.09633154
-3.082785	feel	-0.184983
-3.895699	feel,	-0.08659729
-3.895699	feel.	-0.1012572
-4.196729	feels	-0.1037546
-3.497759	felt	-0.2330873
-4.196729	female	-0.1044734
-4.196729	festival	-0.1046667
-3.155336	few	-0.1201847
-4.196729	fewer	-0.1041142
-4.196729	fiasco	-0.09944458
-4.196729	fiasco,	-0.1046667
-4.196729	figure!!	-0.09857741
-4.196729	fill	-0.1038929
-3.594669	filled	-0.1518546
-3.719607	fillet	-0.09779266
-3.895699	filling	-0.09964015
-3.895699	finally	-0.1038653
-3.293639	find	-0.162875
-4.196729	find.	-0.1046391
-3.719607	finding	-0.09149167
-3.895699	fine	-0.1021468
-4.196729	fine,	-0.1022857
-4.196729	finesse.	-0.09857741
-4.196729	finest	-0.1046667
-3.497759	finish	-0.07613887
-3.895699	finish,	-0.08018896
-3.895699	finished	-0.1030346
-4.196729	finished,	-0.08506905
-4.196729	fire.	-0.09857741
-3.895699	firm	-0.1044458
-3.117548	first	-0.1601294
-4.196729	fiscal	-0.08665485
-3.082785	fish	-0.106422
-4.196729	fishcakes	-0.09919299
-4.196729	fits	-0.09944458
-4.196729	five.	-0.09857741
-4.196729	fix	-0.1046667
-4.196729	fixation	-0.09919299
-4.196729	flair	-0.1046391
-4.196729	flair,	-0.08665485
-4.196729	flaming	-0.1046391
-4.196729	flask	-0.09700652
-4.196729	flat	-0.1046115
-4.196729	flattering	-0.1046391
-4.196729	flavor	-0.1035055
-3.895699	flavors	-0.08405687
-4.196729	flavour,	-0.1025632
-4.196729	flavour.	-0.1045839
-4.196729	flavourful	-0.1046667
-4.196729	flavourful,	-0.1045839
-3.895699	flavours	-0.09938868
-4.196729	floors	-0.1046667
-4.196729	floors.	-0.1030069
-4.196729	flour,	-0.1046667
-4.196729	fluffy	-0.09966808
-4.196729	focaccia	-0.102896
-4.196729	focused	-0.1011459
-3.895699	foil	-0.09279895
-3.497759	following	-0.08053935
-4.196729	fondant	-0.1042524
-4.196729	fondly	-0.1025632
-4.196729	fonduta	-0.1046667
-2.333406	food	-0.5032955
-4.196729	food!	-0.1041142
-3.082785	food,	-0.08031769
-3.196729	food.	-0.1155855
-4.196729	food?	-0.1046667
-4.196729	foodie	-0.1046667
-1.93905	for	-0.2847672
-4.196729	for!	-0.1013129
-4.196729	for.	-0.1046667
-4.196729	for...	-0.09857741
-3.895699	force	-0.1043905
-4.196729	forget	-0.1022024
-4.196729	forgot	-0.1036993
-4.196729	form,	-0.1043353
-4.196729	formed	-0.1046667
-4.196729	forth	-0.1046391
-4.196729	fortnight	-0.1046115
-3.719607	fortunate	-0.3445293
-4.196729	fortunately	-0.1046667
-4.196729	fortunes	-0.1046667
-4.196729	fortysomething,	-0.1046667
-3.497759	forward	-0.5929837
-2.992609	found	-0.2682535
-4.196729	fountain.	-0.1044182
-3.895699	four	-0.2132829
-4.196729	fragrant	-0.1044182
-4.196729	frankly	-0.1028683
-4.196729	frantic	-0.08665485
-3.594669	free	-0.08593474
-4.196729	freezing	-0.1045839
-4.196729	frequented	-0.1046667
-2.781755	fresh	-0.2428806
-3.719607	fresh,	-0.08656849
-3.895699	fresh.	-0.09846539
-3.719607	freshly	-0.1782984
-3.895699	freshness	-0.2132829
-4.196729	friday	-0.1040589
-3.719607	fried	-0.09916501
-4.196729	friend	-0.1022024
-3.895699	friendliness	-0.08662607
-4.196729	friendliness.	-0.1013129
-2.616945	friendly	-0.4217975
-3.418577	friendly,	-0.1023134
-3.895699	friendly.	-0.1029515
-3.242486	friends	-0.1782013
-4.196729	fries.	-0.09857741
-4.196729	fritatta	-0.1038653
-3.895699	frizzante	-0.1024245
-2.553276	from	-0.2158778
-3.895699	front	-0.09678164
-4.196729	fruit	-0.1046391
-4.196729	fuelled	-0.1032009
-4.196729	fulfilled	-0.1046667
-3.293639	full	-0.1700872
-3.719607	full,	-0.1565699
-4.196729	full.	-0.09857741
-3.497759	fully	-0.1040035
-4.196729	fun	-0.1045287
-4.196729	function	-0.1046391
-3.895699	funghi	-0.2209155
-4.196729	funked	-0.1038929
-4.196729	funky	-0.1046391
-4.196729	funny,a	-0.1046667
-4.196729	further	-0.1042524
-4.196729	fuss	-0.08665485
-4.196729	fuss.	-0.09857741
-4.196729	futile	-0.1046667
-4.196729	future	-0.1046667
-4.196729	gamberonni	-0.1046667
-4.196729	game,	-0.1018134
-4.196729	garden	-0.08665485
-3.082785	garlic	-0.2510403
-4.196729	garlic!),	-0.1046115
-3.719607	garlic,	-0.1045839
-3.719607	gave	-0.1582805
-4.196729	gaze	-0.1046667
-3.719607	gelato	-0.101285
-4.196729	gelato.	-0.09857741
-4.196729	gem	-0.09700652
-4.196729	gem.	-0.1030069
-3.719607	gems	-0.07863794
-3.594669	general	-0.1399336
-3.895699	generations	-0.09517601
-3.594669	generous	-0.09991937
-4.196729	generous,	-0.1045563
-4.196729	genre,	-0.1046667
-3.895699	gentleman	-0.1005609
-3.719607	genuine	-0.08501126
-3.719607	genuine,	-0.1774133
-4.196729	genuinley	-0.1043629
-3.117548	get	-0.0955711
-4.196729	gets	-0.1030346
-3.719607	getting	-0.09223104
-4.196729	gifted	-0.1025632
-4.196729	gingerly	-0.1046667
-3.895699	girlfriend	-0.1037546
-3.497759	give	-0.2189284
-3.497759	given	-0.1945271
-3.293639	glad	-0.4687433
-4.196729	gladly	-0.1045839
-4.196729	glam	-0.1035332
-3.351631	glass	-0.1672588
-3.719607	glasses	-0.3452043
-4.196729	glazed	-0.1046667
-4.196729	gleaming	-0.1044182
-4.196729	glistening	-0.1046391
-4.196729	gloom	-0.09633154
-4.196729	gloopy	-0.1042247
-4.196729	gluten	-0.1045839
-4.196729	gluten,	-0.08665485
-3.719607	gnocchi	-0.1583962
-2.854306	go	-0.1921982
-4.196729	go!	-0.100031
-4.196729	go.	-0.100031
-3.155336	going	-0.2502239
-3.895699	going,	-0.2170881
-4.196729	goldfish	-0.1043905
-4.196729	gone!’	-0.1044458
-4.196729	gone,	-0.1035886
-4.196729	gone.	-0.09857741
-2.377185	good	-0.1314342
-3.895699	good!	-0.09854941
-4.196729	good",	-0.1046115
-4.196729	good),	-0.09228788
-4.196729	good,	-0.1037546
-3.293639	good.	-0.1193934
-4.196729	gorgeous	-0.1046115
-3.117548	got	-0.1094054
-4.196729	gourmet	-0.1046667
-4.196729	gown.	-0.1045839
-4.196729	grabbed	-0.09228788
-4.196729	graduates	-0.09700652
-3.719607	grandma	-0.178547
-4.196729	grandmother.	-0.1046667
-4.196729	grandpa	-0.1046391
-4.196729	granseola	-0.1027019
-4.196729	grateful	-0.09966808
-4.196729	gratin	-0.1046115
-2.573479	great	-0.1335023
-4.196729	great!	-0.1046667
-4.196729	great,	-0.1022857
-3.895699	great.	-0.1044182
-3.497759	green	-0.08628054
-3.895699	greeted	-0.08091864
-3.594669	grilled	-0.1587041
-4.196729	grim	-0.1046667
-4.196729	grissini).	-0.1046667
-3.895699	ground	-0.0963034
-4.196729	grounds	-0.1046667
-3.895699	group	-0.09339444
-4.196729	groups	-0.09700652
-4.196729	groups,	-0.1046667
-4.196729	grown-up	-0.1045839
-4.196729	guardian.co.uk,	-0.1046667
-4.196729	guessed,	-0.1046667
-4.196729	guest	-0.1046667
-4.196729	guidance	-0.1034778
-3.719607	guide	-0.1725125
-4.196729	guises	-0.08665485
-4.196729	gurning	-0.1046667
-3.719607	guys	-0.08659727
-2.192407	had	-0.2216074
-3.594669	had!	-0.1519107
-3.895699	had,	-0.1000031
-3.895699	had.	-0.2209155
-4.196729	haddock/peas......we	-0.1028683
-4.196729	hadnt	-0.104501
-4.196729	hail	-0.1034778
-3.351631	half	-0.1219465
-4.196729	half-bad,	-0.1046391
-4.196729	half-hidden	-0.1046667
-4.196729	halibut	-0.1046667
-3.895699	ham	-0.2029313
-3.719607	ham,	-0.1038929
-3.895699	hand	-0.2154694
-3.895699	hand,	-0.08365134
-4.196729	hand-painted	-0.1046667
-4.196729	handed	-0.1043629
-4.196729	handful	-0.09700652
-4.196729	hands.	-0.09857741
-4.196729	hanging	-0.1044734
-3.497759	happy	-0.1682134
-4.196729	happy.	-0.1025355
-3.497759	hard	-0.2277156
-2.874509	has	-0.1895649
-4.196729	hassles	-0.1046667
-4.196729	hate	-0.09633154
-2.377185	have	-0.2632956
-3.895699	have,	-0.1031732
-3.895699	haven't	-0.1045563
-4.196729	having	-0.1044458
-3.082785	he	-0.1377834
-4.196729	he's	-0.1018968
-3.497759	head	-0.09003771
-3.895699	head,	-0.08662607
-4.196729	head.	-0.1046115
-3.719607	headed	-0.1655971
-4.196729	heading	-0.1046667
-4.196729	health	-0.1046667
-4.196729	heart	-0.09700652
-3.895699	hearts	-0.1010345
-3.895699	hearty	-0.1045839
-3.895699	heat	-0.2132829
-4.196729	heaven...	-0.1046115
-4.196729	heavily	-0.1046391
-4.196729	hell	-0.1046667
-3.895699	help	-0.1018968
-3.418577	helpful	-0.4507681
-4.196729	helpful!!	-0.1041971
-3.895699	helpful,	-0.08662607
-4.196729	helpful.	-0.1046391
-3.594669	helping	-0.1383731
-3.196729	her	-0.09542994
-4.196729	herb-crusted	-0.1046667
-4.196729	herbs,	-0.1035332
-4.196729	herd	-0.09700652
-2.691579	here	-0.09971648
-4.196729	here's	-0.08506905
-4.196729	here,	-0.1026742
-3.351631	here.	-0.1920485
-4.196729	here...lots	-0.09700652
-4.196729	heritage	-0.09633154
-4.196729	herself,	-0.1045839
-3.895699	hesitation	-0.215721
-3.895699	hidden	-0.2207498
-3.155336	high	-0.1041687
-4.196729	high!	-0.100031
-4.196729	high-quality	-0.1026742
-4.196729	highlight	-0.1035055
-3.155336	highly	-0.2923375
-4.196729	him	-0.1046667
-4.196729	hinted	-0.102896
-3.050601	his	-0.103284
-4.196729	history),	-0.1041142
-4.196729	histrionic	-0.1046391
-3.594669	hit	-0.200449
-4.196729	hole.	-0.1013129
-3.719607	home	-0.0981852
-4.196729	home,	-0.1032286
-3.242486	homemade	-0.1087267
-4.196729	homey	-0.1045287
-4.196729	honest	-0.1040312
-4.196729	honestly	-0.1044458
-3.895699	honeymoon	-0.2208603
-3.594669	hope	-0.1401643
-3.895699	hopes	-0.1025355
-4.196729	hoping	-0.09633154
-4.196729	hordes	-0.1046667
-4.196729	host	-0.1045287
-4.196729	host???	-0.1046391
-3.719607	hosts	-0.08185084
-3.719607	hot	-0.08593474
-3.895699	hotel	-0.2204735
-4.196729	hour	-0.1038653
-3.117548	house	-0.1697199
-4.196729	house).	-0.1044458
-3.895699	house.	-0.101285
-4.196729	houses	-0.1046391
-3.196729	how	-0.1321454
-3.594669	however	-0.134272
-3.497759	however,	-0.07778694
-4.196729	http://www.thisishullandeastriding.co.uk/Restaurant-review-Lucca-Princes-Avenue-Hull/story-16475594-detail/story.html#ixzz2Oa9T3fn4	-0.09857741
-4.196729	hub	-0.1046391
-4.196729	hubby	-0.1018968
-4.196729	huddled	-0.1046115
-3.895699	huge	-0.0865685
-4.196729	hugely	-0.1046667
-3.895699	humble	-0.1045287
-4.196729	humiliating.	-0.1046667
-4.196729	hummock	-0.09700652
-4.196729	hundred	-0.1046667
-4.196729	hung	-0.09919299
-3.418577	husband	-0.1174052
-4.196729	husband.	-0.1043629
-4.196729	hushed	-0.08665485
-2.917975	i	-0.1419249
-4.196729	i.	-0.100031
-3.418577	ice	-0.1397994
-4.196729	icing	-0.1011459
-4.196729	idea	-0.1027019
-4.196729	ideal	-0.09966808
-4.196729	ideal,	-0.1022857
-2.816518	if	-0.3843699
-4.196729	il	-0.1046667
-4.196729	ilconviviotroiani.com.	-0.1044458
-3.895699	image	-0.2159445
-4.196729	imaginable	-0.1046667
-4.196729	imagine	-0.08506905
-4.196729	immigrants	-0.1043076
-4.196729	importantly,	-0.08506905
-4.196729	imposing.	-0.1013129
-3.418577	impressed	-0.3671393
-4.196729	impression	-0.1038653
-4.196729	impression.	-0.1045839
-4.196729	improved	-0.09633154
-4.196729	improvement	-0.1022024
-4.196729	improvement.	-0.09857741
-1.920267	in	-0.2872067
-4.196729	in,	-0.1041142
-4.196729	in-laws	-0.1045839
-3.895699	in.	-0.09514779
-4.196729	in/to	-0.1040865
-4.196729	inShare1	-0.09857741
-4.196729	incarnation	-0.09700652
-3.895699	inches	-0.1044734
-4.196729	inches,	-0.08665485
-4.196729	inches.	-0.09857741
-3.895699	include	-0.1039206
-3.895699	included	-0.09919299
-3.719607	including	-0.1661942
-4.196729	inclusive	-0.1040589
-4.196729	incredible	-0.104501
-4.196729	incredible.	-0.1040312
-4.196729	incredibly	-0.1028683
-4.196729	indecisive	-0.1046115
-4.196729	indication	-0.09700652
-4.196729	induces	-0.1046667
-4.196729	indulged	-0.09944458
-4.196729	industry	-0.100031
-3.895699	infact	-0.2013454
-4.196729	informal	-0.1046391
-4.196729	information	-0.1011459
-4.196729	informed	-0.1035886
-3.497759	ingredients	-0.07805122
-3.895699	ingredients,	-0.08414372
-3.895699	ingredients.	-0.1000031
-4.196729	ingredients”.	-0.1013129
-4.196729	inhabitants	-0.1022857
-3.895699	initally	-0.2206393
-4.196729	innovations	-0.1037546
-3.895699	innovative	-0.1039759
-4.196729	inquired.	-0.1046667
-4.196729	insanely	-0.102896
-3.895699	inside	-0.07793379
-4.196729	inside,	-0.1045563
-4.196729	inside.	-0.1046667
-3.895699	inspired	-0.10248
-4.196729	install	-0.1045287
-4.196729	instant	-0.1029792
-4.196729	instantly	-0.1046391
-4.196729	instead,	-0.1018134
-4.196729	instinctively,	-0.1045287
-4.196729	interest,	-0.1046667
-3.895699	interesting	-0.104501
-3.594669	interior	-0.1485586
-4.196729	interior,	-0.1025355
-4.196729	internationals.	-0.1046115
-4.196729	interview	-0.09700652
-3.418577	intimate	-0.1015076
-3.196729	into	-0.263441
-3.895699	intriguing	-0.102896
-3.895699	intriguing,	-0.08414372
-4.196729	intro.	-0.1030069
-4.196729	intrusive	-0.1032286
-4.196729	intrusive.	-0.1046667
-4.196729	invasive.	-0.1030069
-4.196729	invest	-0.1046391
-4.196729	invitation.	-0.1046667
-4.196729	invited	-0.09633154
-4.196729	inviting	-0.09919299
-4.196729	inviting.	-0.1046391
-3.895699	involved	-0.09728745
-4.196729	in’	-0.1027019
-4.196729	irresistable.	-0.1013129
-4.196729	irresistible	-0.1046667
-2.017752	is	-0.1776953
-4.196729	is,	-0.1045287
-3.895699	isn’t	-0.1045839
-4.196729	issue.	-0.1044458
-4.196729	issues	-0.1036162
-2.179695	it	-0.3603698
-4.196729	it'd	-0.102896
-3.351631	it's	-0.08697131
-4.196729	it)	-0.1022857
-3.895699	it,	-0.1016744
-3.418577	it.	-0.2014418
-4.196729	it....wish	-0.1008117
-4.196729	it?"	-0.1045287
-3.497759	italian	-0.1008674
-3.895699	italien	-0.10428
-3.895699	items	-0.09966808
-2.941456	its	-0.1345453
-3.895699	itself	-0.09975186
-4.196729	itself.	-0.1046667
-3.895699	it’s	-0.2085643
-4.196729	jackets	-0.1027019
-4.196729	jelly	-0.1045839
-4.196729	job.	-0.09857741
-4.196729	jobs	-0.1038653
-4.196729	joint	-0.1043629
-4.196729	jokes	-0.1045839
-4.196729	jovial	-0.1046667
-4.196729	joy	-0.1022857
-4.196729	joy.	-0.1013129
-4.196729	judge	-0.09700652
-4.196729	judges	-0.1036162
-4.196729	juggle	-0.1028683
-4.196729	jugs	-0.09700652
-4.196729	juice,	-0.1046667
-4.196729	juicy	-0.1046391
-2.705367	just	-0.2287011
-3.719607	karaoke	-0.09725936
-4.196729	keen	-0.09633154
-3.895699	keep	-0.1013963
-4.196729	kept	-0.1046667
-4.196729	kick-started	-0.1032009
-4.196729	kicks	-0.1041694
-3.497759	kids	-0.09559911
-4.196729	kids,	-0.1045839
-4.196729	kids.	-0.1046391
-3.497759	kind	-0.3650335
-3.196729	kitchen	-0.07534204
-4.196729	kitchen.	-0.1040312
-4.196729	kitchen’s	-0.1046667
-4.196729	kitschy	-0.1027019
-3.895699	knew	-0.1021746
-4.196729	knock	-0.08665485
-3.719607	know	-0.08304232
-4.196729	know.	-0.1046667
-4.196729	knowing	-0.104501
-4.196729	knowledgeable	-0.08665485
-3.719607	known	-0.09952839
-3.895699	knows	-0.08501127
-4.196729	labored	-0.1028683
-4.196729	lack.	-0.1045563
-4.196729	lads	-0.09944458
-3.719607	lady	-0.1012572
-4.196729	lager	-0.1046115
-3.895699	lamb	-0.1046391
-4.196729	lamb,	-0.1044458
-4.196729	land.	-0.09857741
-3.351631	large	-0.08544438
-4.196729	large,	-0.1046667
-4.196729	larger	-0.1045839
-4.196729	lasagna	-0.1039482
-3.895699	lasagne	-0.08622293
-4.196729	lasagne.	-0.1041694
-2.96628	last	-0.1625318
-4.196729	latavernaccia.com.	-0.1044458
-3.497759	late	-0.0758144
-3.719607	later	-0.174747
-3.895699	later,	-0.1000589
-3.719607	later.	-0.09678163
-3.895699	latte	-0.2208879
-4.196729	lattice	-0.1046667
-4.196729	laughing	-0.08665485
-4.196729	lavish	-0.1022857
-4.196729	learn	-0.09700652
-3.895699	least	-0.09930483
-4.196729	leave	-0.1046667
-4.196729	leaving	-0.1046667
-3.895699	leaving,	-0.1022579
-4.196729	led	-0.1046391
-3.418577	left	-0.1337623
-4.196729	left,	-0.1042524
-4.196729	leg	-0.09700652
-4.196729	legendary	-0.1045287
-4.196729	legume	-0.1046115
-3.719607	lemon	-0.1046115
-4.196729	lends	-0.1046391
-3.719607	less	-0.1780496
-3.895699	let	-0.1043905
-4.196729	lets	-0.102896
-4.196729	letting	-0.1011459
-4.196729	level	-0.1035055
-3.895699	levels,	-0.2205288
-4.196729	licquer	-0.1046667
-4.196729	life	-0.09944458
-3.242486	light	-0.1423358
-4.196729	light,	-0.104501
-4.196729	lightest	-0.1046667
-3.895699	lighting	-0.0990252
-4.196729	lights	-0.1011459
-4.196729	lights,	-0.1046667
-2.66525	like	-0.2385194
-4.196729	like.	-0.1045563
-3.895699	liked	-0.2013454
-4.196729	limited,	-0.1022024
-4.196729	limoncello	-0.09790487
-4.196729	limp,	-0.08506905
-3.895699	line	-0.1041418
-4.196729	linen,	-0.08506905
-4.196729	linguine	-0.09919299
-4.196729	linguine,	-0.1037269
-4.196729	lip-smacking	-0.1046115
-3.719607	liquer	-0.1045839
-4.196729	liquor	-0.1046667
-3.242486	list	-0.1929048
-4.196729	list,	-0.1046667
-3.719607	list.	-0.1046115
-3.719607	listed	-0.1569184
-4.196729	literally	-0.1046667
-2.854306	little	-0.1350715
-3.418577	live	-0.2001123
-3.895699	lived	-0.2209155
-4.196729	lively	-0.08665485
-4.196729	livers.	-0.1046667
-4.196729	lives	-0.1038929
-3.719607	lobster	-0.1044458
-3.497759	local	-0.1027574
-3.594669	locally	-0.2741083
-4.196729	locals	-0.08665485
-4.196729	located.	-0.1013129
-4.196729	location	-0.09919299
-3.895699	location.	-0.2209155
-4.196729	lone	-0.1046667
-3.351631	long	-0.1271768
-4.196729	long-lasting	-0.1046667
-4.196729	longer	-0.1041142
-4.196729	longing	-0.09966808
-3.155336	look	-0.2044497
-3.117548	looked	-0.342969
-3.196729	looking	-0.2594631
-3.594669	looks	-0.09599365
-4.196729	losing	-0.08506905
-4.196729	loss	-0.09633154
-3.418577	lot	-0.1969563
-4.196729	lot,	-0.1025632
-3.594669	lots	-0.4696435
-4.196729	lounge	-0.1046115
-4.196729	lounge’	-0.1046391
-3.117548	love	-0.07502525
-3.895699	loved	-0.1028128
-2.835001	lovely	-0.119219
-3.895699	lovely,	-0.08451988
-3.895699	lovely.	-0.0985214
-4.196729	lovely.The	-0.1026742
-4.196729	lovely:	-0.1045839
-4.196729	low”	-0.1027019
-4.196729	loyal	-0.1045563
-4.196729	luckily	-0.1040036
-4.196729	lucky	-0.104501
-3.242486	lunch	-0.1449635
-4.196729	lunch,	-0.1045287
-3.719607	lunch.	-0.1782708
-4.196729	lunchtime	-0.1025632
-4.196729	luscious	-0.1046391
-3.895699	lush	-0.2209155
-4.196729	ma-jassive	-0.1046667
-2.798789	made	-0.1740033
-3.895699	made)	-0.2029313
-4.196729	madeira	-0.1044458
-4.196729	magical	-0.1046667
-2.96628	main	-0.2057309
-4.196729	mainly	-0.1032009
-3.351631	mains	-0.1584717
-4.196729	mains,	-0.1008117
-3.293639	make	-0.09173499
-4.196729	make,	-0.1045563
-4.196729	make.	-0.1040312
-3.594669	makes	-0.1370104
-3.293639	making	-0.1274561
-3.719607	man	-0.08097695
-4.196729	manage.dont	-0.1043629
-4.196729	manageable	-0.08665485
-3.351631	managed	-0.2679016
-4.196729	management	-0.1028683
-4.196729	management(	-0.1046667
-3.719607	manager	-0.09666914
-4.196729	manner	-0.1022024
-2.941456	many	-0.1547345
-4.196729	marble	-0.1046667
-4.196729	mare	-0.1037269
-4.196729	marinara	-0.09919299
-4.196729	marinate	-0.09919299
-4.196729	marinated	-0.1046391
-4.196729	mark	-0.1046667
-4.196729	market	-0.1046391
-4.196729	martinis	-0.09919299
-4.196729	martinis,	-0.09228788
-4.196729	mass	-0.1046667
-3.895699	massive	-0.1025077
-4.196729	massive!	-0.100031
-3.895699	masterly	-0.2209155
-4.196729	maternally	-0.1046667
-4.196729	matriciana	-0.09944458
-4.196729	mats	-0.1027019
-3.594669	may	-0.1552929
-4.196729	maybe	-0.09228788
-4.196729	mayonnaise,	-0.1046667
-3.050601	me	-0.1436079
-3.895699	me,	-0.1045839
-3.719607	me.	-0.09511955
-2.816518	meal	-0.1432603
-3.719607	meal,	-0.08007208
-3.418577	meal.	-0.1689416
-3.719607	meals	-0.09779266
-4.196729	meals.	-0.1045839
-3.895699	mean	-0.1041142
-4.196729	meaning	-0.09633154
-4.196729	means	-0.1046667
-4.196729	measure	-0.09228788
-3.351631	meat	-0.2931578
-4.196729	meat,	-0.1046667
-3.719607	meat.	-0.3526435
-4.196729	meatball	-0.1046391
-3.895699	meatballs	-0.2154694
-3.895699	meats	-0.1022301
-4.196729	meats,	-0.1045839
-4.196729	meats.	-0.100031
-4.196729	medley	-0.08665485
-4.196729	meet	-0.1025632
-4.196729	meetings.	-0.1042247
-4.196729	meets	-0.1046667
-4.196729	melt-in-your-mouth	-0.1028683
-4.196729	melting	-0.1046391
-4.196729	meltingly	-0.1046391
-4.196729	memorable	-0.1046391
-3.895699	memories	-0.2132829
-4.196729	memories,	-0.1035332
-4.196729	men	-0.08665485
-4.196729	mention	-0.08506905
-4.196729	mentioned	-0.1005052
-4.196729	mentor,	-0.1041142
-2.691579	menu	-0.272343
-4.196729	menu)	-0.09790487
-3.594669	menu,	-0.07951655
-3.351631	menu.	-0.1878348
-4.196729	menu....love	-0.1025355
-4.196729	menus	-0.1027019
-4.196729	mercy.	-0.1044458
-3.895699	mess	-0.2201693
-4.196729	met	-0.1030346
-3.895699	middle	-0.2132829
-3.497759	might	-0.1423233
-3.895699	miles	-0.1044458
-3.895699	mill.	-0.1008396
-4.196729	milled	-0.08665485
-4.196729	million	-0.1046391
-4.196729	mind	-0.1046667
-3.719607	minestrone	-0.0977085
-4.196729	minimalist	-0.1046115
-4.196729	minor	-0.1046667
-4.196729	mint	-0.08665485
-3.895699	minute	-0.1026742
-3.594669	minutes	-0.09986354
-4.196729	mirage	-0.09700652
-3.895699	mixed	-0.1046115
-4.196729	mixture	-0.09700652
-4.196729	modern	-0.08665485
-4.196729	modify	-0.1044734
-3.719607	moment	-0.1746634
-4.196729	money	-0.1022857
-4.196729	money,	-0.1045839
-3.594669	money.	-0.09647224
-4.196729	money.in	-0.1030346
-4.196729	monkfish	-0.1043905
-4.196729	monkfish,	-0.1037269
-4.196729	month	-0.1046667
-3.497759	months	-0.2169129
-4.196729	mopped	-0.1038929
-2.765365	more	-0.1426885
-4.196729	more.	-0.1046667
-4.196729	more:	-0.1046667
-4.196729	morning.	-0.09857741
-3.020638	most	-0.1422373
-4.196729	mother	-0.1046667
-4.196729	mousse	-0.1042524
-4.196729	mouth	-0.1042524
-4.196729	mouth-wateringly	-0.09919299
-3.895699	mouthful	-0.09009483
-4.196729	mouthful.	-0.09857741
-4.196729	move!!	-0.1041142
-4.196729	moved	-0.1028683
-4.196729	moving	-0.1018134
-3.895699	mozzarella	-0.2206946
-2.941456	much	-0.1127485
-4.196729	much-loved	-0.1046667
-4.196729	much.	-0.100031
-4.196729	mum's	-0.1045563
-4.196729	murals	-0.1005052
-3.594669	mushroom	-0.08630934
-3.895699	mushrooms	-0.09913707
-3.719607	mushrooms,	-0.09627523
-4.196729	mushrooms.	-0.10428
-3.719607	music	-0.09927686
-3.895699	music,	-0.0831584
-4.196729	music.	-0.08506905
-3.497759	mussels	-0.1126334
-3.196729	must	-0.1658651
-3.895699	must,	-0.09613447
-4.196729	mustard,	-0.1046667
-2.418577	my	-0.1982726
-4.196729	myself	-0.1011459
-4.196729	myself.We	-0.1045563
-4.196729	naive	-0.1045839
-4.196729	naked,	-0.1025632
-3.895699	name	-0.1046391
-4.196729	name)	-0.1043353
-4.196729	names	-0.08665485
-4.196729	napkin	-0.1046115
-4.196729	nationals.	-0.1046667
-4.196729	naturally	-0.1046667
-3.895699	nduja	-0.1026742
-3.594669	near	-0.0720209
-4.196729	nearby!!!	-0.1045563
-4.196729	nearby!!!Really	-0.1040865
-4.196729	nearby,	-0.08665485
-4.196729	nearing	-0.08506905
-3.895699	nearly	-0.1027851
-4.196729	neck.	-0.1044458
-3.497759	need	-0.2076074
-4.196729	need.	-0.104501
-3.895699	needed	-0.1043905
-4.196729	needing	-0.1046667
-4.196729	needs	-0.09919299
-4.196729	neighbour	-0.1046667
-4.196729	neither	-0.1005052
-3.418577	never	-0.08399897
-3.196729	new	-0.1234048
-4.196729	new.	-0.1046667
-4.196729	newer,	-0.1046667
-4.196729	newest	-0.1046115
-4.196729	newspaper.	-0.09857741
-3.117548	next	-0.4749355
-2.854306	nice	-0.1650974
-3.895699	nice,	-0.08353541
-3.895699	nice.	-0.08486681
-3.895699	nicely	-0.09916504
-4.196729	nicely.	-0.1044458
-4.196729	nicest	-0.1039206
-2.835001	night	-0.1161532
-3.418577	night,	-0.127441
-4.196729	night-time	-0.1046667
-3.418577	night.	-0.1035886
-4.196729	night.From	-0.08506905
-3.895699	nights	-0.08645334
-2.917975	no	-0.1251153
-4.196729	no-one	-0.1040312
-4.196729	no/very	-0.1040865
-4.196729	noise.	-0.1044458
-4.196729	non,	-0.1028683
-4.196729	non-alcoholic	-0.1046391
-4.196729	non-reserved	-0.1045839
-4.196729	none	-0.09700652
-4.196729	nonetheless,	-0.1046667
-4.196729	nor	-0.1046667
-4.196729	norm	-0.09919299
-4.196729	norm,	-0.1022857
-3.895699	normally	-0.1045563
-3.895699	north	-0.09697842
-2.472453	not	-0.08587472
-4.196729	notch.	-0.1046667
-4.196729	noted	-0.1046667
-3.719607	nothing	-0.1676125
-4.196729	notice	-0.1025355
-4.196729	notice.	-0.1046391
-4.196729	novelty	-0.100031
-3.719607	now	-0.09835333
-3.497759	now,	-0.0748987
-4.196729	now-mandatory	-0.1046667
-4.196729	nowhere	-0.1045839
-4.196729	nuf	-0.1046667
-3.594669	number	-0.2633185
-4.196729	numbers	-0.1046667
-4.196729	numbers,	-0.09790487
-4.196729	obsession	-0.09700652
-3.895699	occasion	-0.08659729
-4.196729	occasioned	-0.1032009
-4.196729	occasions	-0.09919299
-4.196729	occupies	-0.1041142
-3.895699	odd	-0.2197819
-1.75582	of	-0.228965
-4.196729	of?)	-0.09857741
-3.082785	off	-0.1690397
-4.196729	off-the-peg	-0.1046667
-4.196729	off.	-0.09857741
-3.418577	offer	-0.08083116
-3.594669	offer.	-0.09200369
-4.196729	offered	-0.1032286
-4.196729	offered)	-0.1045839
-3.594669	offering	-0.1464041
-3.594669	offers	-0.1452374
-3.594669	often	-0.09975185
-3.895699	oil	-0.2029313
-4.196729	oil,	-0.1038653
-3.895699	oil.	-0.1043076
-4.196729	ok.	-0.1045839
-3.594669	old	-0.08489569
-4.196729	older.	-0.1046667
-3.594669	olive	-0.1538426
-4.196729	olives	-0.09966808
-3.895699	olives,	-0.1045839
-2.089519	on	-0.4107819
-4.196729	on).	-0.1046667
-3.895699	on.	-0.0985214
-4.196729	on;	-0.09228788
-3.719607	once	-0.08451986
-4.196729	once,	-0.1022857
-2.640426	one	-0.3645313
-4.196729	one!	-0.1045839
-4.196729	one!).	-0.104501
-4.196729	one,	-0.08665485
-4.196729	ongoing	-0.1046667
-3.594669	onion	-0.2581382
-4.196729	onions	-0.09919299
-4.196729	onions,	-0.1046667
-4.196729	online	-0.08665485
-2.992609	only	-0.1446831
-4.196729	onwards	-0.1046667
-3.497759	open	-0.09497841
-4.196729	open-plan	-0.1044182
-3.497759	opened	-0.08266489
-3.895699	opening	-0.1023689
-4.196729	opening,	-0.100031
-3.719607	opens	-0.3510938
-4.196729	opinion	-0.1035886
-4.196729	opposition	-0.1046667
-4.196729	opt	-0.09966808
-3.351631	opted	-0.268386
-4.196729	options	-0.1027019
-2.719607	or	-0.1131466
-3.293639	order	-0.1121817
-4.196729	order),	-0.08665485
-4.196729	order.	-0.100031
-3.196729	ordered	-0.09133755
-4.196729	ordered.	-0.09857741
-4.196729	ordering	-0.1046667
-4.196729	orders,	-0.1022857
-4.196729	orders.	-0.09857741
-4.196729	ordinary	-0.08506905
-3.895699	original	-0.1041694
-2.816518	other	-0.1244421
-4.196729	other.	-0.1045563
-3.719607	others	-0.08472227
-3.895699	others.	-0.101285
-3.895699	otherwise	-0.1006446
-2.524631	our	-0.1244555
-3.895699	ourselves	-0.09824127
-4.196729	ourselves,	-0.1046391
-4.196729	ourselves.	-0.1046115
-2.734331	out	-0.1263909
-4.196729	out).	-0.1046391
-3.594669	out,	-0.06840412
-3.895699	out.	-0.09854941
-3.497759	outside	-0.0929408
-3.497759	outside.	-0.2261362
-4.196729	outstanding	-0.1044458
-4.196729	oven	-0.1046391
-4.196729	oven.	-0.1013129
-2.96628	over	-0.1046234
-3.594669	overall	-0.09557092
-4.196729	overall.	-0.1043629
-4.196729	overbooked	-0.1032286
-4.196729	overcome.	-0.09857741
-4.196729	overcooked	-0.1046391
-4.196729	overcooked.	-0.09857741
-4.196729	overflowing	-0.09919299
-4.196729	overlooked	-0.1032009
-3.895699	overlooking	-0.2013454
-4.196729	oversalted	-0.08665485
-4.196729	overseen	-0.1032009
-4.196729	overstretch	-0.1046667
-4.196729	overtaken	-0.1032009
-4.196729	overwhelming	-0.09919299
-4.196729	overwhelming,	-0.09919299
-3.594669	own	-0.1045563
-4.196729	owned	-0.1031177
-4.196729	owned/run.	-0.1044458
-3.117548	owner	-0.1091528
-4.196729	owner's	-0.1046667
-4.196729	owner)	-0.1046667
-3.895699	owner.	-0.09854941
-4.196729	owner/manager	-0.1046391
-3.719607	owners	-0.1605892
-4.196729	oxtail	-0.09919299
-4.196729	oyster	-0.1046115
-3.594669	packed	-0.1473126
-4.196729	packed.	-0.1046115
-4.196729	paid	-0.09633154
-4.196729	palatable	-0.1043629
-4.196729	palette	-0.08665485
-4.196729	pan	-0.1046115
-4.196729	panache	-0.09944458
-4.196729	pancetta	-0.08665485
-4.196729	pancetta,	-0.1043353
-3.895699	panna	-0.2209155
-4.196729	panna.	-0.100031
-4.196729	panzanella,	-0.09228788
-4.196729	pappardelle	-0.09919299
-4.196729	parade	-0.09700652
-4.196729	park	-0.1027019
-4.196729	park.	-0.09857741
-4.196729	parma	-0.1046115
-3.895699	parmesan	-0.1026742
-4.196729	parsley	-0.08665485
-4.196729	parsley.	-0.09857741
-4.196729	part	-0.09700652
-4.196729	particularly	-0.1044734
-4.196729	parties	-0.09700652
-4.196729	parties.	-0.1045839
-3.293639	partner	-0.1070844
-3.594669	party	-0.0865685
-4.196729	pass	-0.08506905
-3.719607	passed	-0.1004215
-3.895699	passing	-0.1045839
-3.895699	passion	-0.2159445
-4.196729	passionate	-0.1039482
-4.196729	passionate,	-0.1045839
-3.719607	past	-0.1045839
-4.196729	past.	-0.1046667
-2.749571	pasta	-0.1355137
-3.719607	pasta,	-0.08443309
-3.594669	pasta.	-0.100756
-3.895699	pastas	-0.08295526
-4.196729	pastas,	-0.1044458
-4.196729	pastas.	-0.1043629
-4.196729	pastries	-0.08665485
-4.196729	pastry	-0.1011459
-4.196729	patch	-0.1011459
-4.196729	paternal	-0.1046667
-4.196729	patience	-0.09633154
-4.196729	pavement	-0.1046667
-4.196729	pavement.	-0.09857741
-4.196729	pavlova	-0.100031
-4.196729	pay.	-0.1046667
-4.196729	paying	-0.1044182
-3.895699	pear	-0.08659729
-4.196729	pearly,	-0.1039759
-4.196729	pecorino	-0.1046667
-4.196729	pecorino,	-0.1046391
-4.196729	pecorino.	-0.09857741
-4.196729	peculiar	-0.1046391
-4.196729	penne	-0.1046667
-3.293639	people	-0.09765241
-4.196729	people,	-0.08665485
-4.196729	pepe	-0.1046667
-3.719607	pepper	-0.1041141
-4.196729	pepper)	-0.09919299
-4.196729	pepperoni.	-0.1013129
-3.895699	peppers	-0.08118103
-4.196729	peppers),	-0.1046667
-3.895699	peppers,	-0.1043905
-4.196729	peppers.	-0.1046391
-3.895699	per	-0.1046115
-3.351631	perfect	-0.06049855
-3.719607	perfect.	-0.1028683
-4.196729	perfection,	-0.08506905
-3.895699	perfection.	-0.2175893
-3.351631	perfectly	-0.1040312
-4.196729	perfectly.	-0.10428
-4.196729	perhaps	-0.1046667
-4.196729	period,we,	-0.1025632
-4.196729	period.	-0.1043629
-4.196729	permanent	-0.1035332
-4.196729	pernod,	-0.104501
-4.196729	person.	-0.1042247
-3.719607	personal	-0.1036162
-4.196729	personally	-0.100031
-4.196729	personnel	-0.1044734
-3.895699	persuasions,	-0.2013454
-4.196729	pestered	-0.1046391
-4.196729	pesto???	-0.1046667
-4.196729	pestos,	-0.1044458
-4.196729	phew!).	-0.1030069
-4.196729	philosophy	-0.1039482
-4.196729	phone	-0.08665485
-4.196729	photogenic”	-0.09944458
-4.196729	photos	-0.09700652
-4.196729	piazzas	-0.1025632
-4.196729	picante	-0.1046667
-4.196729	pici,	-0.1044458
-4.196729	pick!!!!	-0.100031
-4.196729	picked	-0.1025355
-4.196729	pictures	-0.09700652
-4.196729	piece	-0.1046667
-3.895699	pieces	-0.09166242
-4.196729	pig,	-0.08665485
-4.196729	pink,	-0.08665485
-2.874509	pizza	-0.1560529
-4.196729	pizza,	-0.1022857
-4.196729	pizza.	-0.1044458
-4.196729	pizza.....if	-0.102896
-4.196729	pizzaiolo	-0.1005052
-3.497759	pizzas	-0.1239152
-4.196729	pizzas;	-0.1028683
-4.196729	pizza’s	-0.1027019
-4.196729	pizzeria,	-0.100031
-2.573479	place	-0.1843091
-4.196729	place!	-0.1044734
-3.351631	place,	-0.09514777
-3.196729	place.	-0.1324314
-4.196729	place.Brilliant	-0.1046115
-4.196729	place.We	-0.1018968
-4.196729	placed	-0.1041694
-3.594669	places	-0.2156371
-3.895699	plain	-0.1043629
-4.196729	plan	-0.1046667
-4.196729	planned	-0.1046115
-3.895699	planning	-0.07793379
-4.196729	planted	-0.1011459
-3.594669	plate	-0.08923738
-4.196729	plate.	-0.1046391
-3.895699	platter	-0.2126079
-4.196729	platters	-0.09700652
-4.196729	play?"	-0.1036993
-3.497759	pleasant	-0.2357209
-3.895699	pleasant,	-0.1041971
-4.196729	pleasant.	-0.09857741
-3.895699	pleasantly	-0.1044458
-4.196729	pleasure	-0.09633154
-3.719607	pleasure.	-0.09807309
-4.196729	plentiful.	-0.09857741
-3.895699	plenty	-0.09616263
-4.196729	plot	-0.1022024
-4.196729	ploughed	-0.1011459
-3.594669	plus	-0.09183308
-4.196729	plush	-0.1046667
-4.196729	poached	-0.1046667
-4.196729	point	-0.09700652
-3.895699	pointing	-0.220584
-4.196729	points	-0.09966808
-4.196729	polenta,	-0.1046667
-4.196729	polished	-0.1043353
-4.196729	polite	-0.08665485
-4.196729	politician	-0.1046667
-3.895699	politicians	-0.2132829
-3.895699	pollo	-0.1044458
-4.196729	polls	-0.09700652
-4.196729	poorly	-0.1046115
-4.196729	pop	-0.09944458
-3.594669	popular	-0.1336286
-3.895699	porcini.	-0.2175893
-3.497759	pork	-0.2359419
-4.196729	porky	-0.1046667
-4.196729	porridge.	-0.09857741
-3.497759	portion	-0.08318741
-3.895699	portion.	-0.2148538
-3.351631	portions	-0.1454332
-4.196729	portions,	-0.100031
-4.196729	portions.Throw	-0.09944458
-3.895699	posh	-0.1029515
-4.196729	positive	-0.08665485
-4.196729	possible	-0.1046391
-4.196729	possible,	-0.1046667
-4.196729	possible.	-0.1041142
-3.895699	possibly	-0.0919184
-4.196729	post	-0.1045287
-4.196729	pot	-0.09700652
-3.895699	potato	-0.08091864
-4.196729	potato.	-0.09857741
-3.719607	potatoes	-0.1597537
-4.196729	potatoes,	-0.1046667
-4.196729	prawn	-0.08665485
-3.719607	prawns	-0.1002542
-3.895699	prawns,	-0.08662607
-3.895699	pre	-0.2209155
-4.196729	pre-and	-0.1046667
-4.196729	pre-determined	-0.1046391
-4.196729	preclude	-0.1046391
-4.196729	preferably	-0.09228788
-3.895699	premises	-0.0865685
-4.196729	preparation,	-0.1046667
-3.594669	prepared	-0.1496318
-4.196729	prepared.	-0.1046115
-4.196729	preparing	-0.1043905
-4.196729	prepped	-0.1044182
-4.196729	present	-0.1011459
-3.719607	presented	-0.1548818
-4.196729	presented.	-0.1044734
-4.196729	pressure,	-0.100031
-4.196729	presumably	-0.1046391
-4.196729	pretentious,	-0.1005052
-4.196729	pretty	-0.1044734
-4.196729	prevalent	-0.1011459
-3.719607	previous	-0.1044181
-4.196729	previously	-0.1046667
-3.196729	price	-0.06068194
-3.895699	price,	-0.09700652
-3.418577	priced	-0.07957508
-4.196729	priced.	-0.1043629
-3.594669	prices	-0.4592918
-3.895699	prices.	-0.1046115
-4.196729	prices."Frequented	-0.1032009
-4.196729	private	-0.1046667
-4.196729	prize	-0.1046667
-4.196729	prize-winning	-0.1045839
-3.594669	probably	-0.08492459
-3.895699	problem	-0.07793379
-4.196729	problems)-	-0.1037269
-4.196729	processed	-0.1046667
-4.196729	produced	-0.09228788
-4.196729	productive	-0.1046667
-4.196729	products	-0.1043076
-4.196729	professional	-0.08665485
-3.895699	professional.	-0.2175893
-4.196729	professionalism.	-0.09857741
-4.196729	professionally	-0.1046115
-4.196729	profiteroles.	-0.1044458
-3.895699	proper	-0.1029515
-4.196729	properly	-0.1046667
-3.895699	properly!	-0.2208603
-4.196729	proprietor	-0.1046115
-4.196729	proprietor,	-0.1046667
-4.196729	proprietors	-0.09700652
-4.196729	prosciutto	-0.09790487
-3.895699	prosciutto,	-0.1022024
-4.196729	proved	-0.1032009
-4.196729	provide	-0.09228788
-4.196729	provide.	-0.1030069
-3.895699	provided	-0.09866141
-4.196729	providing	-0.09228788
-3.895699	proving	-0.08495349
-4.196729	provolone,	-0.1046667
-4.196729	pub	-0.1045839
-4.196729	public	-0.1044458
-3.895699	pudding	-0.09997521
-4.196729	puddings	-0.08665485
-4.196729	pumpkin	-0.08665485
-4.196729	punchy	-0.1046667
-4.196729	punchy,	-0.1046667
-4.196729	puree,	-0.08665485
-4.196729	pushed	-0.08506905
-3.719607	put	-0.1781326
-4.196729	qualification	-0.09633154
-3.196729	quality	-0.1363543
-3.895699	quality,	-0.1035055
-3.895699	quality.	-0.2148538
-4.196729	quarter	-0.1046667
-3.895699	queue	-0.101869
-4.196729	quibble	-0.1045287
-4.196729	quick	-0.1041971
-3.719607	quickly	-0.08440416
-3.594669	quiet	-0.100951
-3.895699	quiet,	-0.09838136
-4.196729	quiet.	-0.1045839
-4.196729	quietening	-0.1043629
-3.242486	quite	-0.1596083
-4.196729	quizzed	-0.1044182
-4.196729	rack	-0.09700652
-4.196729	radiator	-0.1046667
-3.895699	ragu	-0.1046391
-4.196729	rainy	-0.1046391
-4.196729	rang	-0.09944458
-3.497759	range	-0.2247779
-4.196729	ranging	-0.1034778
-4.196729	rare	-0.09944458
-4.196729	rarely	-0.1045563
-4.196729	raspberries	-0.1046667
-4.196729	raspberries.	-0.1040312
-3.895699	rated	-0.220584
-3.719607	rather	-0.1038653
-4.196729	rating	-0.09700652
-4.196729	rations!	-0.1013129
-4.196729	raved	-0.1039482
-3.594669	ravioli	-0.135002
-4.196729	ravioli;	-0.08506905
-4.196729	raw,	-0.1046667
-4.196729	re-assuring	-0.1046667
-4.196729	reaching	-0.08506905
-3.594669	read	-0.1380256
-3.719607	reading	-0.1571215
-3.418577	real	-0.1394678
-4.196729	realities	-0.09700652
-2.765365	really	-0.1198109
-4.196729	really,	-0.1039482
-4.196729	really.	-0.09857741
-3.196729	reasonable	-0.2142851
-4.196729	reasonable,	-0.1046667
-3.895699	reasonable.	-0.1041694
-3.719607	reasonably	-0.3527264
-4.196729	recall	-0.1028683
-4.196729	reccomend	-0.09228788
-4.196729	receive	-0.104501
-4.196729	received	-0.09228788
-4.196729	recently	-0.1018968
-4.196729	recession-proof	-0.1046667
-4.196729	recieved	-0.1011459
-3.895699	recipe	-0.0969222
-3.895699	recipes	-0.1041418
-4.196729	recite	-0.1033948
-4.196729	recognising	-0.1039759
-4.196729	recomend	-0.1025355
-2.917975	recommend	-0.2312723
-3.895699	recommend.	-0.1046391
-4.196729	recommendation	-0.09966808
-3.351631	recommended	-0.07930336
-4.196729	recommended!	-0.1030069
-3.895699	recommended.	-0.1046391
-4.196729	recommending	-0.1025355
-3.895699	recommending,	-0.2205288
-4.196729	recommends	-0.08506905
-3.293639	red	-0.1618348
-4.196729	red.	-0.1030069
-4.196729	redcurrant	-0.1046667
-4.196729	reduced,	-0.1044458
-4.196729	refreshed	-0.1034778
-4.196729	refreshing	-0.1027019
-4.196729	regarded	-0.1025632
-4.196729	region	-0.1046391
-4.196729	regional	-0.1046667
-3.895699	regions	-0.2185621
-4.196729	region’s	-0.1046667
-3.497759	regular	-0.1043076
-4.196729	reinvented	-0.08506905
-4.196729	reitired	-0.1046667
-4.196729	relatives	-0.1042247
-3.594669	relaxed	-0.1575977
-4.196729	relaxed,	-0.1045563
-3.594669	relaxing	-0.09961221
-4.196729	relish	-0.1044458
-4.196729	relishing	-0.1046391
-4.196729	remained	-0.1046667
-4.196729	remarked	-0.1022024
-3.719607	remember	-0.1502789
-3.895699	remember.	-0.1045563
-4.196729	remembered	-0.1018134
-4.196729	reminded	-0.1039759
-4.196729	reminisce	-0.1039482
-4.196729	repeat	-0.1046391
-4.196729	replicate	-0.1025355
-4.196729	reported,	-0.1046667
-3.895699	reputation	-0.07793379
-4.196729	request	-0.08665485
-4.196729	requirements,	-0.1041694
-4.196729	requires	-0.1046667
-4.196729	rescue	-0.1046667
-4.196729	researching	-0.08506905
-4.196729	resembled	-0.09228788
-4.196729	reservation	-0.1011459
-4.196729	reservation.	-0.1013129
-4.196729	reservations	-0.09966808
-3.719607	reserved	-0.1605028
-3.895699	resist	-0.07208043
-4.196729	resist.	-0.1046667
-4.196729	resistance,	-0.1022857
-4.196729	resisted	-0.08506905
-4.196729	responsible	-0.09966808
-3.497759	rest	-0.5936586
-4.196729	restairant	-0.1022857
-2.440854	restaurant	-0.1569142
-4.196729	restaurant!	-0.1045563
-3.293639	restaurant,	-0.1570646
-4.196729	restaurant-I'll	-0.102896
-3.351631	restaurant.	-0.182987
-4.196729	restauranteur)	-0.09790487
-3.050601	restaurants	-0.2223499
-3.895699	restaurants,	-0.0980731
-3.895699	restaurants.	-0.09347944
-4.196729	restaurant’s	-0.1045287
-4.196729	restricted	-0.1046667
-4.196729	restuarant	-0.1045287
-4.196729	resuscitation.	-0.1046667
-4.196729	retained	-0.1041971
-4.196729	retaurants	-0.1045563
-4.196729	retire	-0.1043353
-4.196729	retirement	-0.08665485
-4.196729	return	-0.08665485
-3.719607	return.	-0.09336608
-3.594669	returning	-0.1541219
-4.196729	returning!	-0.1043629
-4.196729	revamp	-0.1041142
-4.196729	review!!!Brilliant	-0.1040865
-3.117548	reviews	-0.5725794
-3.895699	reviews,	-0.1028128
-4.196729	revisit	-0.08665485
-4.196729	ribollita	-0.1038653
-4.196729	rice	-0.1011459
-4.196729	rich	-0.1044734
-4.196729	richly	-0.1046391
-3.594669	ricotta	-0.1407693
-3.895699	rigatoni	-0.09231628
-3.117548	right	-0.1544289
-3.895699	right,	-0.09989147
-3.594669	risotto	-0.1501111
-4.196729	risottos	-0.1022857
-4.196729	ristorantedaltoscano.it.	-0.1044458
-4.196729	ristoranteditirambo.it.	-0.1044458
-3.895699	ristorantefortunato.it.	-0.2207222
-4.196729	road	-0.09944458
-3.895699	roasted	-0.1043905
-4.196729	robust	-0.1046667
-3.895699	rocket	-0.2029313
-4.196729	rocket,	-0.1039759
-4.196729	roe)	-0.1022857
-4.196729	rolling	-0.1046667
-4.196729	rolls	-0.1034778
-4.196729	rolls,	-0.1043076
-4.196729	romano	-0.1046667
-3.895699	romantic	-0.1022024
-3.497759	room	-0.0865685
-3.895699	room,	-0.1020913
-4.196729	rooms	-0.08665485
-3.895699	rosemary	-0.1045839
-4.196729	rosemary,	-0.1046391
-4.196729	roughly	-0.1046667
-3.719607	round	-0.08330343
-4.196729	royalty	-0.09919299
-4.196729	rub.	-0.1045287
-4.196729	rugby	-0.1046667
-3.082785	run	-0.1232131
-3.895699	running	-0.1046115
-3.895699	rushed	-0.09838136
-4.196729	rushed,	-0.1008117
-3.895699	rustic	-0.09966808
-4.196729	rustic….mine	-0.1043353
-4.196729	rustles	-0.1038929
-4.196729	s	-0.09228788
-4.196729	safe	-0.1046667
-4.196729	saffron	-0.09790487
-3.418577	said	-0.1722044
-4.196729	said!	-0.100031
-4.196729	said,	-0.08506905
-4.196729	said.	-0.1046667
-4.196729	sala	-0.1046667
-3.196729	salad	-0.1198073
-4.196729	salad",	-0.1046667
-4.196729	salad,	-0.104501
-4.196729	salad.	-0.1013129
-4.196729	salads,	-0.1032286
-4.196729	salami’;	-0.1046667
-3.895699	salmon	-0.2029313
-4.196729	salmon.	-0.09857741
-4.196729	salsa	-0.09790487
-4.196729	salt	-0.1041694
-4.196729	salted.	-0.09857741
-3.895699	same	-0.1045839
-4.196729	same,	-0.08665485
-3.594669	sample	-0.06999204
-4.196729	sandwich	-0.102896
-4.196729	sardines	-0.08665485
-3.719607	sat	-0.1757488
-3.895699	satisfying	-0.09941663
-3.242486	sauce	-0.1020375
-4.196729	sauce"	-0.1046667
-4.196729	sauce).	-0.10428
-3.895699	sauce,	-0.08498238
-3.594669	sauce.	-0.4712144
-3.895699	sauces	-0.2029313
-4.196729	saucing	-0.1046391
-4.196729	sausage)	-0.1046667
-4.196729	sausage,	-0.09919299
-4.196729	sausage.	-0.1045563
-4.196729	sausage/pepper,	-0.1046115
-4.196729	sausages	-0.09857741
-4.196729	sausage’.	-0.1046667
-3.895699	save	-0.09214581
-4.196729	saved	-0.1032009
-3.895699	saw	-0.1008117
-3.242486	say	-0.09066551
-4.196729	say,	-0.1018134
-4.196729	say.	-0.1045839
-3.895699	says	-0.0919184
-3.895699	scallops	-0.0973717
-4.196729	scallops/chorizo,	-0.1046391
-4.196729	scene.	-0.1046667
-4.196729	sceptical	-0.1041971
-4.196729	scheme,	-0.1046667
-4.196729	scoop	-0.09700652
-4.196729	scoops	-0.09700652
-4.196729	screen	-0.1046667
-3.895699	scrigno,	-0.09115002
-3.594669	sea	-0.274247
-4.196729	sea".	-0.1013129
-4.196729	sea.	-0.1030069
-3.418577	seafood	-0.1305849
-4.196729	seafood.	-0.1046667
-4.196729	search	-0.1011459
-4.196729	searched	-0.1038929
-4.196729	seared	-0.1046391
-3.594669	season	-0.1356433
-4.196729	seasonal	-0.1045563
-3.895699	seasoned	-0.1035609
-4.196729	seat	-0.09919299
-4.196729	seat,	-0.100031
-4.196729	seated	-0.1035886
-4.196729	seating	-0.1046667
-3.497759	second	-0.09077956
-4.196729	sections.	-0.09857741
-3.242486	see	-0.09829929
-4.196729	seed	-0.1022024
-4.196729	seeing	-0.10428
-4.196729	seeking	-0.09228788
-3.594669	seem	-0.4689685
-3.895699	seemed	-0.2126079
-4.196729	seemingly	-0.1044734
-3.895699	seems	-0.09537352
-4.196729	sees	-0.1043353
-3.351631	selection	-0.384461
-3.895699	selections	-0.09899722
-4.196729	selects	-0.1044182
-4.196729	self	-0.1046667
-4.196729	self-reverential	-0.1038099
-3.895699	sell	-0.2180898
-4.196729	sells	-0.1038929
-4.196729	semi-psychedelic	-0.1046667
-4.196729	send	-0.102896
-4.196729	sense	-0.1025355
-4.196729	sensible	-0.1044182
-3.895699	sensibly	-0.1046391
-4.196729	serenade	-0.1034778
-4.196729	series	-0.09700652
-3.719607	serve	-0.1774686
-2.992609	served	-0.4703217
-4.196729	served,	-0.08665485
-4.196729	server	-0.09944458
-3.895699	serves	-0.1042524
-2.652661	service	-0.2630092
-3.242486	service,	-0.07482477
-3.293639	service.	-0.1207523
-4.196729	service.He	-0.104501
-4.196729	serviceable.	-0.1045839
-4.196729	services	-0.1035886
-3.155336	serving	-0.07699314
-4.196729	servings	-0.09700652
-3.594669	set	-0.1552093
-4.196729	sets	-0.1038929
-4.196729	several	-0.1046667
-4.196729	sevice	-0.1032286
-4.196729	sevice,	-0.1046391
-4.196729	sexy	-0.1046667
-4.196729	shall	-0.102896
-3.895699	shallots,	-0.1046391
-4.196729	shank	-0.1043629
-3.594669	shanks	-0.1479927
-3.719607	share	-0.1601861
-4.196729	share.	-0.10428
-3.719607	shared	-0.08483788
-4.196729	sharp	-0.1046667
-4.196729	sharp,	-0.1046667
-4.196729	shavings	-0.09700652
-4.196729	shavings,	-0.1046391
-3.196729	she	-0.1386828
-4.196729	sheep	-0.1045563
-4.196729	shifted	-0.08506905
-3.895699	shines	-0.1043905
-4.196729	shocking.	-0.1030069
-4.196729	shop,	-0.1025632
-4.196729	shops	-0.09944458
-4.196729	shops.	-0.1046667
-4.196729	shores	-0.09700652
-3.418577	short	-0.3144794
-3.895699	short,	-0.1041694
-4.196729	shortbread.	-0.09857741
-4.196729	shortly	-0.09966808
-3.497759	should	-0.145192
-4.196729	show	-0.1043353
-3.895699	showed	-0.1038929
-4.196729	showing	-0.1046115
-4.196729	shown	-0.1046667
-4.196729	shrimp	-0.08665485
-4.196729	shrunken	-0.1046667
-3.895699	shy	-0.09678164
-3.418577	side	-0.07616837
-4.196729	sidekick.	-0.1046667
-4.196729	signals	-0.08665485
-4.196729	signature	-0.1046391
-4.196729	signorina	-0.1027019
-4.196729	signs,	-0.1025355
-4.196729	silky,	-0.1046667
-4.196729	simmer	-0.09944458
-4.196729	simmered	-0.09966808
-3.497759	simple	-0.07808057
-3.895699	simpler	-0.2204735
-4.196729	simplest	-0.09700652
-3.895699	simply	-0.1015354
-4.196729	simply,	-0.1025355
-3.594669	since	-0.09669728
-4.196729	sinfully	-0.1046667
-4.196729	singing	-0.08665485
-4.196729	single	-0.1046667
-4.196729	sink),	-0.1045563
-3.895699	sirloin	-0.1045563
-3.895699	sit	-0.08662607
-3.895699	sitting	-0.2159445
-4.196729	sitting”	-0.1046115
-3.497759	size	-0.2269548
-4.196729	size,	-0.1022857
-4.196729	sized,	-0.1046391
-3.895699	sizes	-0.2180898
-4.196729	sizes.	-0.1046115
-3.895699	skip	-0.2013454
-4.196729	slants	-0.1011459
-4.196729	sleek	-0.08665485
-4.196729	sleepy	-0.1046391
-3.719607	sliced	-0.10309
-4.196729	slices	-0.09700652
-4.196729	slick	-0.104501
-4.196729	slicker	-0.1043076
-3.594669	slightly	-0.1035609
-4.196729	slivers	-0.09700652
-4.196729	sloppy	-0.1046667
-4.196729	slow	-0.09944458
-4.196729	slowly	-0.1046667
-2.96628	small	-0.1113246
-3.895699	small,	-0.1022579
-4.196729	smaller	-0.1045287
-4.196729	smarm.	-0.09857741
-4.196729	smile	-0.1011459
-3.895699	smiley	-0.1046391
-3.719607	smoked	-0.1045839
-2.472453	so	-0.1600377
-4.196729	social	-0.1046667
-4.196729	sofa	-0.09944458
-3.719607	soft	-0.1785746
-4.196729	soften	-0.08506905
-4.196729	sold	-0.1043076
-4.196729	sole	-0.1046667
-4.196729	sombre	-0.1046115
-3.020638	some	-0.1301682
-4.196729	somebody	-0.09633154
-4.196729	somehow	-0.104501
-3.351631	something	-0.09194682
-4.196729	something's'	-0.09944458
-4.196729	somethings	-0.1018134
-3.895699	sometimes	-0.1028683
-3.719607	somewhere	-0.1684613
-4.196729	sommelier.	-0.1043629
-4.196729	son's	-0.1046667
-3.594669	soon	-0.1006167
-3.895699	soon!	-0.0984934
-3.895699	soon.	-0.1000031
-4.196729	soooooo	-0.1036439
-4.196729	sophisticated	-0.1046667
-4.196729	sought.	-0.1046667
-4.196729	soul	-0.09700652
-3.895699	sound	-0.2132829
-3.719607	sounded	-0.1783813
-4.196729	sounding	-0.1046667
-3.594669	soup	-0.1280023
-4.196729	soup)	-0.08665485
-3.719607	soup,	-0.06560366
-3.594669	sourced	-0.1029515
-4.196729	sourced"	-0.1045563
-4.196729	sourced?	-0.1046667
-4.196729	sourdough	-0.1046667
-4.196729	sourdough.	-0.09857741
-3.895699	space	-0.2208327
-4.196729	space.	-0.1045839
-3.719607	spag	-0.3528093
-4.196729	spagetti	-0.1046667
-3.293639	spaghetti	-0.2421373
-4.196729	spaghetti,	-0.08506905
-4.196729	spare	-0.1046667
-4.196729	speak	-0.1043905
-4.196729	speaking	-0.09633154
-4.196729	spec	-0.1044458
-3.155336	special	-0.1133687
-3.895699	special.	-0.1027574
-4.196729	specialist	-0.1046391
-3.719607	specialities	-0.08440416
-3.895699	speciality	-0.1038653
-3.196729	specials	-0.0952889
-4.196729	specials.	-0.1043629
-4.196729	speedy	-0.08665485
-3.895699	spent	-0.08254871
